Unnamed: 0,ret14593,ret10107,ret84788,ret47896,ret22111,ret55976,ret59408,ret83443,ret18163,ret11850,ret66093,ret92655,ret26403,ret59328,ret65875,ret17778,ret66181,ret11308,ret22752,ret14541,ret38703,ret21936,ret76076,ret13856,ret19561,ret70519,ret10104,ret75510,ret20482,ret19393,ret43449,ret86580,ret14008,ret62092,ret87055,ret17830,ret10145,ret57665,ret50876,ret48725,ret15579,ret12490,ret24205,ret49680,ret21178,ret77702,ret59176,ret22592,ret77178,ret12060,ret17005,ret13901,ret66157,ret61399,ret86783,ret69032,ret87447,ret18542,ret86868,ret10696,ret73139,ret87267,ret64186,ret71563,ret44644,ret39642,ret40539,ret13928,ret60442,ret78975,ret64936,ret27959,ret18411,ret17478,ret49154,ret77605,ret24942,ret75186,ret53613,ret18729,ret24766,ret56573,ret62148,ret45751,ret14702,ret70578,ret19350,ret36468,ret19502,ret28222,ret61241,ret12052,ret64311,ret85913,ret75825,ret48653,ret11955,ret81055,ret17750,ret24109
2001-01-04,0.0277938912168644,0.2121917518336433,0.2583130349428121,0.0324534244210156,-0.4432520087470921,0.3889735020208704,0.1092111511806286,-0.3093189883421977,-0.1953072542087659,0.730820258700991,-0.3129126350954695,-0.6976029318438297,0.1472416912103697,0.1098997156306451,0.2331945421374304,0.5799737769787061,0.0225052695419761,-0.2171071231472092,-0.1521326033192031,-0.797233295143605,1.116594446786075,0.2918176177126372,0.1137291439844226,-0.3777696127225282,-0.2207958054402374,-0.4863915074208538,-0.1392610327943634,0.0876577544895654,0.4993827548093999,0.1124934294491189,-0.3894506834923038,0.0275615255246062,0.0946299402515288,0.0946896716371579,-0.4143086543901613,0.2609883747996721,-0.0255278358593592,-0.1287542855554272,-0.0165681773602011,-0.4968689537738832,0.2754185044359032,-0.2219866137305956,-0.0810433727119005,0.280220657120052,-0.1961584579830532,-0.236346607546237,-0.3126992929365398,0.3721739984718579,-0.0126088645077144,1.101656927071851,-0.3478790699360546,-0.053503979825096,-0.3307520402022227,-0.675232947802899,0.0372817408485469,-0.0317048398716353,-0.3233173897869554,0.3762138247639485,-0.481001803958606,0.1485341730706271,-0.4523711814214987,0.2862818192288776,0.453128385343063,-0.5606113866598541,0.1398937325573192,0.2318086978365631,-0.3861866712170935,-0.116009118557576,0.0839602222136955,-0.0276310163829415,0.3830770865269951,0.5883418281367573,-0.090720249677743,-0.0401564634489796,0.1038500710086154,-0.1148932896175364,-0.2177022527606597,0.0443414835189818,0.1196689108125603,0.2185423642094835,-0.0668344317254149,-0.4409699812362011,-0.3299351194615673,0.4702080671889882,-0.5360742926058047,0.267213577746708,0.0524859893835144,-0.2340806587601114,0.705501434360762,-0.0111998040234544,0.0259999489822066,0.7108039964542374,0.7939308685020717,-0.1723616143528577,-0.1082624246896224,0.0578274365814536,-0.5143802461875623,0.157435578313535,0.4967645453654753,-0.7632099272076109
2001-01-05,0.01655544382652499,0.15137960915908996,0.3924754419916378,0.10084401379935061,-0.5018066709675807,0.5970984387447866,-0.08331592037693208,-0.4528362446778251,-0.20821791012173918,0.28007833117017333,-0.08547991539564916,-0.197791340392759,-0.03961522384332088,0.018191288999989216,0.17594974550759368,0.5734189027041077,0.03156787380180356,-0.17677139871951264,0.17687149414256498,-0.20574103859757578,1.1070978379598453,0.26772788929994534,-0.15277619295384876,0.11179721555945234,-0.20112364399265073,0.22008252636050846,0.11407557313029792,0.06889994481762367,0.4582338265219843,-0.07936434189586876,0.017286439132548934,-0.005675878625523714,0.034457505804417685,0.23459249179601707,-0.15563699948170226,-0.021598828608512723,0.040798407365342626,0.1850721646325665,0.02670754711886097,-0.0727496381271028,0.05004350698091328,0.1577317948390334,-0.1922936415418572,0.45816054866630174,-0.14578213122883424,-0.13960427439645068,-0.038900536871212414,0.5224285364266708,0.13068179995110019,0.43768187606501496,-0.2563983933853835,-0.5865578077259005,-0.32547798769316616,-0.16741227705956208,0.046963393145389054,-0.06544928021583721,-0.4706799297565226,0.17631759142250672,-0.15285812695773754,0.026041258244429752,-0.13987554350115997,0.07722693666316857,0.5408473205339352,0.041044420467086534,0.26666161289937296,0.448245722135552,-0.3548126390564815,0.6011199583821523,-0.5351515422842753,0.07327800543629527,0.489483521456444,-0.3463029008591729,0.36291676198797046,-0.39217868789433685,-0.15018090933369915,-0.06412756733306176,-0.04458426604663333,0.3117247122093879,0.24574346717227985,0.1489100044974992,0.3153233084031567,0.006042273375756537,-0.1692354949948927,0.971515259494188,0.01978663809748374,0.17394835399544836,0.22192836046329356,-0.7744533823471541,0.5173255140758712,0.20465678547641294,0.02768705558238112,0.23521571197016525,0.25003410486780225,-0.771876252999763,-0.1893885894847131,0.0650999877985069,-0.10296309264831904,-0.08801309926502617,0.5720858048462395,0.12466798086999914
2001-01-08,0.060529005376374664,0.22220359869833353,0.10845279116838918,0.38218738960988197,-0.4109540182174537,0.6603734580757042,0.2152443268084074,0.7628953338667688,-0.0693152437932089,-0.03803967124603908,-0.02106089407116545,-0.12374460961073601,0.11417456642209337,0.11178842145202471,0.04463263744814725,-0.3850250125660191,-0.29409571107479165,0.08840550816752353,0.42338268779061755,0.3082207541594535,0.6583556567978169,-0.014638179336461585,0.31818038143454347,-0.4019480578584235,0.0737533779307301,-0.5618515851336461,0.032605667491862375,0.15212762981107933,0.6198280137888468,0.253759311126428,0.26268152665702366,0.11353983261226494,0.14065112321738624,0.3077549750543929,-0.05730794556056312,0.3300450924165129,0.2101958426541721,0.26247530849518075,0.12480837341972678,0.013992667605928471,0.18576369469277115,-0.10300299422596546,0.06583136958551007,0.3908210771056759,-0.02589394830106248,-0.03694522298721298,0.44177268332680253,0.9005685719724146,0.21381881307726253,0.6466614078593346,0.004500354801312075,-0.30130663447371286,-0.020752039891998447,0.1942054306970595,0.13227680441158324,-0.028589396089538185,-0.344026676219688,0.48932368190511333,0.007518918716011999,0.3069168983825007,-0.030458673651643255,0.27501422328907854,0.2323617493165909,-0.8120623782641736,0.41010582529408884,0.10899130681167929,-0.02552835917997902,-0.3346159650576852,-0.22641922273145015,0.11092420236079986,-0.07440487737707721,0.5080207214789083,0.1813266500623114,-0.13949001374573208,-0.33249308285679724,0.07393415687318682,0.24733469943073844,0.10185152796483354,0.30414587552528666,-0.014477956045853054,0.13120545240645612,-0.3138543433271108,-0.23802592523390334,0.8522809808451124,-0.3339259484741691,-0.007140702607771568,0.26026743153372944,-0.5891120949301495,0.1964080720333956,0.2758120759750213,0.15376021196874415,-0.4496938678382798,0.3485718734308607,-0.633742153173405,-0.10306670365445363,-0.06293528186765301,-0.01723106606188889,-0.20197198976460695,-0.23540910369831775,0.25865286253508685
2001-01-09,-0.03714670972998165,-0.17073519888875302,0.2345254097334649,0.33711531028550806,-0.034105709756140225,0.28477972911021704,-0.6962434688945399,0.12683480354999302,0.008655171960803577,0.09299456169013437,0.037279726209007095,0.04383977561849871,0.0005566022036053277,0.03881773887583143,-0.10631563554562586,0.12274696192208595,-0.21338950299995219,0.2647820097230827,0.25821704852361715,0.4819119213489881,0.657858516406151,-0.2293078028194145,0.31627146173815346,0.08233359298707697,0.12085971356282561,-0.27280968311947423,0.003575162915954929,0.015276011365459287,0.6335637737292874,0.06264275755959856,0.14704373818776412,-0.10640795415125205,-0.022916822787218755,0.11893096591409713,-0.046753077367773656,0.3719148366222664,0.03332178205186391,-0.06599686063426556,0.3476389078812663,-0.08220615021723121,0.19980155319425177,0.07004885655001795,0.546028427235934,0.6956821180377463,-0.09788636850314435,-0.15342465608123232,0.6204283112255755,0.3217682153151952,0.019649745244254665,0.6675769196050867,-0.13991489612780247,-0.3080826183424086,0.04891332179554125,0.3691335209449822,0.1374046083190606,-0.370833691084658,0.00929586574036478,0.2191051424414199,0.4789643857397672,0.05043122942113254,0.1791200384447783,0.26106314652477053,0.13199156439284387,0.04122554758245623,0.23678201511643596,0.1394629319804021,-0.030643638247269067,0.044463191250739234,-0.09084039063138766,0.28342200161513953,0.052012656688072284,-0.42267154049445144,-0.2327849083683977,-0.3814293218553497,-0.28256260974579794,-0.09492585562034883,0.2959155443963416,-0.0398578921019869,0.30755667392485736,-0.31639410593513173,-0.0029982037017328884,-0.07431593081591471,-0.708237480945001,0.7174413562300078,-0.4514323795956763,-0.49484182395984116,0.3099448744930818,-0.010906807685554142,-0.19309075056100822,-0.03865931170574648,0.08475056933795264,-0.4646827708128998,0.6542778265633861,-0.42179206647068185,-0.1559543385017006,0.05168245014206913,0.07611726186510435,-0.23966016411553073,-0.15766328702853744,0.3634240615837652
2001-01-10,0.01022464944025345,-0.2551549907697271,0.1068537305831368,-0.0037136154890597003,0.11562068976908645,0.37635310877383626,0.002614321916757861,-0.7318390103929125,-0.130924145431154,0.7264822835108766,0.16867513570349954,-0.26346092823806466,0.01646882467024896,0.22045876249912405,-0.33902482491086167,0.9994517356285685,-0.06722581545024378,0.4083388614206789,0.6198640854823932,-0.2926835582181503,0.8357254793999025,-0.2122615116065119,0.00740963713957976,-0.21910157012725445,-0.022948185078381665,-0.32293841747392454,-0.17189870308684915,-0.005108653101311609,0.4036369739380376,-0.23980242661417958,-0.1734310209080043,0.0731390606528191,0.19426196338083304,0.30331549552329,-0.21704985820529515,0.2546195656250164,0.26128712504377144,-0.12176907342339455,0.06687030511732306,0.10046471703249742,-0.033867912457210776,0.1824075363895362,-0.08130194715019709,0.5779438650713586,-0.3259242296297114,-0.23766689152946818,0.3717938013606261,0.4426030479264285,0.3035094668805656,0.6898694866111258,-0.22706937564425392,-0.21242451811809693,-0.1591114456424367,0.24471709604784797,0.04322060579447691,-0.010025996863762354,0.04227017204019687,0.18237902932595854,-0.08450634149412106,0.05103738553646134,0.1648239393555554,0.029483947381056055,0.3686672090629329,0.46892816771073736,0.016566917204847275,0.08727797505991089,-0.3658254615267183,-0.2016879935803151,-0.45085314887261896,0.256067680525899,0.8911875682494009,0.8252234977119507,-1.0118411171135029,0.25005070980123734,0.04804993218847077,0.016953675839004482,0.08402678574183453,0.29876930244540917,0.1596304208075284,0.07676040206793891,0.22573405872304084,-0.31272352766684713,-0.4121196986545974,0.5094645696096513,0.020470841020891074,0.19534932666213506,0.16863346223251433,0.39961530292347835,0.46417121939380107,0.09509409200989631,0.16914881840024984,-0.014863544609581262,0.10690639339722903,-0.38288064014034817,-0.1163329851061584,-0.13117595625791562,-0.00872559722604287,-0.10353050193116994,0.14916468433593105,-0.6206356173685008
2001-01-11,0.04164905677170798,-0.3383055444847986,0.13399137178130538,-0.4601579268292985,0.322889370918621,0.19606118293953048,0.18143839688025662,-1.2573720007994276,0.023663143872756857,1.2769564666380544,-0.11525778959192938,-0.7289849181006112,-0.01982482890806243,0.05690907310361444,-0.1929518134592472,1.534311059399151,-0.04783802765919787,0.1583160327931019,0.39631050441601917,-0.4961691137457412,1.256511246405081,0.07076990168861504,0.29454944564491387,0.3415753271732108,0.2356555983201598,-0.7966211017509132,-0.22676574663441007,0.3050769778076881,0.3386907394020701,0.04919306118266084,-0.5284481737546205,0.11666189101698927,0.021639470235591936,0.08040413836078279,-0.11896861913352418,-0.14668372083634423,0.11827703906514977,0.04704234539710991,-0.018860039911724007,-0.10622106095919125,0.2059693822930962,-0.15703150429165066,-0.08973623133206982,-0.06905966831842224,0.03383575911565988,-0.1925071338280911,0.5116045968604196,0.5261038825510336,0.18846717699300508,0.6340053733809359,-0.4193324032095631,-0.1432220578277815,0.05529301609867954,-0.0990454180156977,0.1589083141453274,0.07844128286398988,0.5225450878128136,0.334937074060738,-0.010940150730542263,-0.042508309788740324,0.14568404992510425,0.20741273889628686,0.17223405253481358,-0.8848966164179871,-0.39284993628361314,0.1677703815063409,-0.016467246183257192,-0.016835508044651098,0.42936454416478653,0.0853142409906477,0.46504308338631006,0.6692044030005873,-0.2868827775227852,0.03134862640480204,0.1876481300301902,0.02392185531701877,0.057767212807801664,0.3569283758227839,0.08658015097720054,0.015041386744874659,-0.35083906718228147,0.001260136604320408,0.07785248003137488,0.2930449464769345,-0.0340502377667748,0.5003946691203971,-0.10348670273788226,0.3795699562865151,0.4978644696534218,-0.10022596980487382,0.16912738247246517,0.4460732159164125,-0.025654759586212054,0.04630949642625181,-0.11887475429555586,0.032834083374447966,0.14696569335769466,-0.029929452582554427,0.16101046157992185,-0.3791833313785961
2001-01-12,0.01008101864839704,0.11300522772415796,0.24330625347740953,-0.7770002693673702,0.3399572663743196,0.12703886274553933,0.35369389963572395,0.6707344618660307,-0.015250308043293791,0.5041777057069315,-0.11654279956556052,-0.24739917544277493,-0.03085171785278771,0.1577122162860584,0.2635625246690079,-0.43115181955043724,-0.39259980049112175,-0.0540350455440012,-0.13961802718201385,0.270297345285029,0.3533723063632439,0.1972060252963924,0.05245426469588891,0.29390138545416455,0.29207238542428954,-0.07238148003539137,0.06567133642396054,0.3199490374822794,0.1827851583475295,-0.052224201762414726,0.2001325360339644,-0.04221722923577543,0.06492847304739119,0.24763285979417676,-0.13741529290564575,-0.5909617676825717,0.008268108792067894,0.01806648627541291,0.08936287703307143,0.15938949073344158,0.052270022822218855,-0.2178950002786825,0.27618522793302636,-0.013039589484141214,-0.3206705672143298,-0.2244312563750208,0.19218394912207207,0.5296695494145854,0.23157190417044735,0.6147014801140855,-0.21745631957657346,-0.2643975907875883,0.00887669918210301,0.37417532244265894,-0.08029712542924741,0.0785183287359101,0.15866328394789111,0.1996877068103539,0.022777404100257453,-0.20062891995784302,-0.17225676423248298,0.17101215363494907,0.06375843124524513,-0.6925186837044394,0.00707035890728208,-0.10680817848318873,-0.09079291660577986,-0.4681501586249087,0.49537497562978283,0.05816649822268322,0.30511148452173587,0.3976175008497247,0.3936065939786236,-0.21197184095559585,0.4623807004906938,0.20509910901802633,0.20780759841207286,0.17668618231777025,0.0801395284380276,-0.24407198214816767,-0.0857668038996531,0.5442279868404604,0.05627186659609608,0.6226209847083937,0.09093216496741736,0.07833776068543537,-0.009064973497188074,0.016776259025670943,0.25234807028191325,0.15978467315763686,0.2349590929083613,0.7060197740857835,-0.18962328043508841,-0.09589775407324991,-0.10918619485934213,-0.05561589131982062,-0.03127096808502805,0.13576210926409546,0.1538735968174529,-0.26864568090227436
2001-01-16,0.10339848088396587,-0.07093691469378423,0.30052356265798835,-0.5255924038038035,0.005024378675773408,0.05179140221985854,-0.049369860940957425,-0.2724857546106036,0.2097853770802348,0.27698068842184126,0.4826638870200462,0.09293728725532079,-0.3078808668141364,0.017267634967801176,-0.17188562783688313,0.533859907617443,-0.10044442049973046,-0.13547830017824392,0.6076601016833955,0.13855732484590721,0.5817506241240381,-0.0654219722223005,0.42908101088506434,0.07737468659591015,-0.08051119219840636,1.0414466713999522,0.046656611476892214,0.14084003192377467,-0.2815673168698475,-0.33302781020269795,0.29926953759839353,0.004891007748949372,0.09224715644924675,0.2264542968129972,-0.029985259907288515,-0.08870420207038894,-0.09159133206290493,-0.12317594482196857,0.33238010875557716,0.06514602978671531,0.28421704113545965,0.028119487230274985,0.6070808568331753,0.26926435247270974,-0.30555266282854315,-0.1235684098766881,0.13465325556889118,0.28877897901413374,0.01137029102497077,0.10068506521997557,0.00929820336044022,-0.3340069041185461,0.07548996723496036,0.49263690164160606,-0.03437344161084204,0.03927231858724588,0.0845252224268402,-0.0203010765344386,-0.1698770200286285,-0.1109529393654411,-0.10207471273716251,0.032507108713472746,-0.04386668215014592,-0.18024797159257935,-0.10756739822135068,0.09694953493349555,-0.124036143033542,-0.025941876532816963,-0.34475651523848877,0.12986956029685243,-0.225966812423522,-0.8929791358167274,0.8856313182392751,-0.45315990028659925,-0.21086776838464044,0.03961327283665957,-0.009996842393274094,0.24923422696630337,-0.1130474505631134,0.12216076862221871,0.2148954341224187,0.5194719422712427,0.057941300178787916,0.877287972935597,-0.06435878925600415,0.05543549110930273,0.44905496880388496,-0.2570717102122739,0.35410077306528626,0.148595813476593,0.16557453360904092,0.5694955305360081,0.02747611444889112,-0.1786777516324957,0.36593377872065325,-0.06667033182132359,-0.09510766204816366,-0.13054269806890184,-0.19850491211317983,0.2252149649236394
2001-01-17,0.12454404509479107,-0.03356682944680131,0.1000752463620674,0.35554191561801807,0.29373733932924617,-0.326325072636699,-0.6140914604132385,1.6891872821435139,0.14714042272036648,0.37618677415798846,0.32245547657210577,-0.22600334790511706,-0.4865603220875785,0.13587253971304383,-0.024623801783249917,-1.146654590755046,0.1291485483361643,-0.012984287654405784,0.026982997769864174,0.5993648979153137,0.11628336822453686,0.5574412899924847,0.2983592308186381,-0.17140999857016676,-0.35019347181133514,0.17438218829179214,-0.22439050991941978,0.22218400538559605,0.3560959520693581,-0.24695413059350832,0.23189199154473306,-0.0624489771904218,-0.004773595234928205,0.2728422140502313,-0.0935609750408038,-0.14172599083837986,0.15584051050536166,0.11428620130200812,-0.038244461594682935,0.5656649098938096,0.2722863673212368,-0.024662378753448427,0.26915187778877375,0.1362807284222564,-0.26508228646494464,-0.0925127714165735,0.11614759394153022,0.1033528755187767,0.2621541454198581,0.3277438431447707,-0.15729699992245652,-0.04666248215647095,0.483545694180524,0.5611404806793419,-0.02128664541974425,0.38591982805240976,0.12027235953989833,-0.1748937099662838,-0.18065953068687637,0.1399152921571512,0.11857165529123632,0.02095298885423754,0.1325319839173838,0.08819894550701914,-0.051665846969758115,0.051035957948747344,-0.07885503605852424,-0.7089913302379591,-0.6478372094838183,0.16295805863566254,0.754446018268146,-0.2508104196100783,1.0564206671510685,-0.1254121199887059,-0.1479822866158201,-0.09917537979413396,0.1158322129000523,0.32672077194059224,-0.03521564544414488,0.025651870967462582,0.2943019587460713,0.16398834869507964,-0.5250526587574674,0.5769128041395485,-0.18295312571492772,0.5542075551812429,0.290985765568246,-0.6447729519286461,0.5387368125136252,0.6213591992686698,0.2643313506416883,0.5393476167778068,0.36173006655516926,-0.12730847088146954,-0.05346976798070646,-0.1467509878408218,-0.04855489628091215,-0.04518978254244453,-0.2348474359128219,-0.5856540362209166
2001-01-18,0.16636943084215772,-0.0314440194563914,0.1843423589136175,-0.3935722678199567,1.1127461939891552,-0.10862977390883458,0.3983243191411452,-0.28315294648612954,0.09153087827810726,0.5388376287082307,0.35735390368067416,-0.19389225439466187,-0.34286405928158264,0.25050791673297973,-0.013178231166841461,0.738692268798583,0.23876195475910514,-0.1900582980712612,0.26043148911002756,-0.47928124122942434,0.11766530357807614,0.3850909462794246,0.5605150723211731,0.2544255590917206,-0.12273356137677063,0.5284881760107878,-0.22091737093278757,0.05625932017970926,-0.5348934171983867,-0.29881094279336584,0.08278675062910931,-0.04090101358012438,0.0660579185687598,0.2872114999929007,0.16196295642889286,-0.06268929031608217,0.1276539509599243,-0.11867988086256369,0.09532596456221268,0.15733435201382986,0.4158039677924626,-0.005225272725901513,0.07471855184590337,-0.11366013809658938,0.1834355333838004,-0.18019050368082726,-0.057452938699750024,-0.12439114432184974,0.12375348748635692,-0.06588828609087069,0.29049192499162224,-0.2124295181104271,0.5611831579799336,0.4588604971217171,0.05551144298883685,0.39146850517201254,-0.20415488861618716,-0.42409696170033345,-0.5270483322052624,0.05253158231997675,-0.0017644426203751087,0.15653894190171386,0.6295556783577766,-0.10686252612007838,0.4278893130598505,-0.10846507512309356,-0.2670861015313624,0.014311491544958437,-0.7543408636191272,0.25579075669697987,-0.09979939935681664,-0.0897695635754385,0.9167181675922166,-0.3051611723663762,-0.16975359535039572,-0.06783606001139794,-0.0063656740216146285,0.4871082925518481,0.05001498389508468,0.10375778029337093,0.05427602470661131,-0.3052478142919205,-0.17245431958712162,0.3384822011723442,-0.32209702917978505,0.6347592317496016,0.6008141808449167,0.014652535236670781,-0.11638423797168987,0.41792517491104586,-0.046615833705643483,0.42798549382619433,-0.17251899811311094,0.14636434001082116,0.522194801425638,0.00752176985956693,-0.08038856249227011,-0.21198812660211086,0.19138720724493852,-0.3971325692923517
2001-01-19,0.07586770240193169,-0.43473059682684645,0.16989926610002723,0.2947871070325863,0.5181479802824276,0.017545949866172524,-0.1417176401527531,0.4223449962737755,0.2223075816971094,0.8316010034453083,0.45708768468649896,-0.3369388683780491,-0.18462106722688018,0.29287527240683636,-0.19563057981437235,-0.21754596400341658,0.16851772194594963,0.03890253921127234,0.26511631037765426,0.14867892278518852,0.22352587063234805,0.5971371291573043,0.6322611477148488,0.26316647975347285,0.19437917990140896,0.22235195178410364,-0.05089900964329471,0.2976310504313863,-0.15084633829674432,0.0039315935439681255,0.15696319754159307,-0.004310999182947464,-0.25328945095728705,0.30436019417372556,0.030866688633784323,-0.2658431446380836,-0.2747335918724602,0.022835084334610824,-0.04895013121379164,0.06710085142447839,0.2643529935947247,-0.578741359141715,0.17703343444689254,0.48412700575088213,0.2795481291223985,-0.2246712371502878,0.05847113937927328,-0.3514989824216266,0.030874553844892728,-0.5342834371329027,0.028142441198383137,-0.39730631118469706,0.3042211044133331,0.3042391653561028,0.08726784315003118,0.4276262151135846,0.06058054954090247,0.6057198509025885,-0.41154557021533783,-0.05231807402420145,0.1974641634486194,0.16132876486321626,0.8279563541092391,-0.41439867589549756,0.14155597791723762,-0.38965376463673795,-0.26437088438840844,0.5252792885277986,-0.224604591922953,0.31525906212956295,-0.06280891675679012,-0.651012533909961,0.8428702714750945,-0.5113982548890134,-0.3078425710125884,0.08495141957056103,-0.05324649033583096,0.411812936056521,-0.01692789469624086,0.10602934373955406,0.26747531995197527,-0.12634012935389974,0.2049160970494362,0.20833877372815415,-0.1470316171937143,0.4347920465631232,0.1969231030422577,0.2791375333541717,-0.09894943909072271,-0.2015074397424379,-0.27763476368298873,0.20440214182707506,-0.26988773665107285,-0.1246574034094939,0.06668912152713798,-0.09081658597416734,0.20230493158459986,-0.05564507433928621,0.2571157575499597,-0.38650789273058667
2001-01-22,0.0566395563986688,-0.4188427334697832,0.00831575576390077,0.21733429861943399,0.15063673569412847,0.07825727489291162,0.02614028229669442,-0.7027625677247694,0.05784668216988395,0.6779293144318268,0.38497325125591647,-0.5443039750572354,-0.145884247153846,0.35906332714348405,-0.26756708890775915,0.7452050131241228,0.3121605456385217,0.01863753220095687,-0.4424592432819577,0.3682826257500323,-0.14363333258255362,0.37807228147223565,0.16007366823243094,0.2290003835226206,0.3901540464694239,-0.05245391747676659,0.0616482795137652,0.11171661543301079,0.5287824146143287,0.031200418591929454,0.05311436585593336,0.006878843932114923,-6.609490849136968e-05,0.3455656931735014,0.010988608836963404,-0.141643647587486,-0.0928675753007538,0.027709414575503258,0.042781153109251215,-0.4988257051549164,0.23138247174559093,-0.515209965932244,0.1491884764577695,0.50635547929809,0.016707487141957102,-0.11653810564288093,0.429710849222648,-0.45389770513120753,0.12133470934413361,-0.09733262010603044,-0.2204993242304207,-0.1059667138370295,0.09824382064615242,-0.021017189375677953,0.057381007600196286,0.051958054750535144,0.06609118985907167,0.7016913630358459,-0.5939341569522236,-0.014198138277171288,0.1966567388152181,0.10623166368672365,0.9703502657619923,-0.6427170140871958,0.024669459706886773,-0.14562806262331698,-0.29079798987823213,0.08259449865342804,0.6704115527794631,0.3001486885119232,-0.4162520599950989,-0.658731295376579,0.6800338659893462,-0.25399332065647323,-0.06521183834798068,0.2938490783718989,0.0946577737874358,0.29370909018408514,-0.07106936012018762,0.14211318619327562,0.11087498650739808,-0.43774154025869755,0.33857029319666165,0.13604383299667178,0.017319732146409254,0.39030085905021833,-0.08687145134425661,0.47524124469146267,0.21735349772691961,-0.004555247981457953,-0.03038051318767894,-0.015045238054408942,-0.018592110630678012,-0.15289249173259814,-0.03538179712035301,0.11799303959047408,0.13666896202436768,-0.08085331595664225,0.18788049677602187,-0.31451501591443703
2001-01-23,0.0969757755115675,-0.6052087988878234,0.01403513208297461,-0.02986803201949422,0.2071522865159131,-0.12401607358718986,-0.29296326503761844,0.049832408089151535,0.21353559140516523,0.2679048568111943,-0.15964574790688485,-0.6462620298334838,0.0027085836873603987,0.5461740525933009,0.07931122601426634,0.0740004080233498,0.09593461958517918,0.22993061492478517,-0.3882221121243043,0.6084820467087292,-0.4694635862074298,0.1372822646201349,0.016950900253362176,0.33353519397923487,0.5320387467241354,0.13311433817921603,0.17416603896498298,0.06051978940244248,0.7247643065415189,0.25104555489885705,0.32427665194504335,-0.0006761590121068181,-0.027404520437288513,0.25316785406504383,0.09115551011483934,0.1893781829749308,0.001691815652015743,0.01811584714294023,0.20515745529441262,0.4474907130305538,0.2708479592075308,-0.2808161088914507,0.19463931185257816,0.16873258712937467,-0.055616824887739974,0.061930945959498655,0.7471778156637667,-0.29155226409274565,0.06164052977408134,-0.16310272002822704,0.1885156248366644,0.06394835691902546,0.2889768791243711,0.20849607174780724,0.0830956909357457,0.07406465961233309,0.1281215397906031,0.4660174596312683,-0.018704374502275068,0.0631744277841791,0.2654958693941907,0.012722213621418869,0.355310535094853,0.10441520250333008,0.5131231449873451,-0.6559726501914536,-0.060517985130859424,0.0286634513829318,0.06396725864343644,0.2869735979067506,-0.17137670967284727,-0.14246149529317167,-0.028285680231080974,-0.006223972740202842,-0.28671293653544805,0.07980878979374753,0.13737756998547088,0.3123390977753653,-0.019167293895815146,-0.012209532503480286,-0.3376685454299667,-0.281960678571851,0.28158082355546615,-0.07119427091421607,-0.1434291409913772,-0.11097931410535612,0.18290350307640948,0.7028049553763882,-0.224186687479408,-0.2841063512627925,-0.09845056974195791,0.021099354501903214,-0.24586705821819757,-0.1442044251795265,0.1767801584740762,0.012951980256907613,0.18264332275463532,-0.14440053420601737,0.011973785623102657,-0.20922373038154496
2001-01-24,0.13299549956850376,-0.32202768928807646,0.1080837706192793,0.18871014823603408,0.44395858820482087,0.03580422901134854,-0.5219950685494049,-0.1207999736097257,-0.03684664227464684,-0.031896199107385316,0.15718864819710107,-0.678007657059122,0.1473132048661066,0.3272717884085151,0.07205376671710437,0.16885526485074898,0.27969846033518214,0.041832610568066336,0.1253682273936036,0.313322263495639,0.14184070063246398,0.09721291516799739,-0.030153624958634075,0.45340991218418714,0.2694623640201898,0.34756694337048927,0.029100985450299738,0.04115502948984645,0.10341721271217368,0.2012785147274227,0.18990849711380006,0.034960591779281416,-0.08944732207926702,0.2049733372563866,-0.018997981761558175,0.20017728259115566,-0.0448673714228867,0.03743860693037187,-0.01058093275709818,-0.0858072518483633,0.35911908974995327,-0.12713880310108772,0.4385794432218632,0.1833784261678538,0.3955055177109023,0.01294188569592366,0.032073936557046635,-0.5245541385085303,0.023788443952849403,-0.14234685143778625,-0.023507553357782127,-0.013666662385377282,0.257714483670003,-0.13560465973658686,0.0919458340840764,-0.038761807960746686,0.2051857288675894,0.6035411995149891,-0.03982385778366013,-0.2689855889415829,0.32267638407831944,0.06387643983654126,0.819191408737354,0.37985147747324505,0.22060842399583577,-0.23792524583752758,-0.17382513047944373,0.5840810342001372,-0.31873691878863575,0.19293364127976687,-0.8617812440050081,-0.11282270209175732,0.48177397089296464,-0.13326935418620162,-0.3744710059986244,0.07532717634673726,-0.23971686381981494,0.4073539792740906,-0.08095990094111229,-0.04154873455199005,-0.08980142581775757,-0.11764877273087301,0.11591263972054758,-0.014498492621632992,0.12576385084568353,0.027407192000877375,-0.11915058105741946,0.08650008222453161,0.07018637903756084,-0.11928797414423653,-0.1510445881410055,0.23573040771475862,0.169782977172161,-0.0904701192964937,-0.06560362650391403,0.13490233594344722,0.14492459004926836,0.13202380378672246,0.3066496639681126,0.3968375887669637
2001-01-25,-0.024676971823226947,-0.1490095089587745,-0.09320540473384191,0.17486580200586319,0.40743233474197327,0.10817042899159256,0.06077454164303768,0.23886841082861948,-0.1956097407286525,-0.400260456357992,-0.0020569355127164103,-0.3834565550216186,0.1110151840798039,0.41245470676205664,-0.05293818896729059,-0.13711452418444894,-0.047186050903614676,-0.13428150443092163,0.24485678604478625,0.29892442273801556,-0.6265172424140049,-0.6293413338832216,0.3050473474227707,0.2590048389308408,0.1774647352777057,-0.49958678371158305,-0.02351027783060267,0.08696360787816355,0.22850337300234758,0.1959312026176057,0.3508503819276425,0.01996115713400493,0.13768358076185042,0.01896118479754696,-0.0005732074595352996,0.2807337341783501,0.04493926408398365,-0.06358476373504678,0.24172747420734922,0.32060600212354085,0.24172222627112544,-0.27639351218214736,0.41820401841310484,0.07260603004019585,0.07515018774831522,0.12653843662335698,0.6527050761789299,-0.0006164590195449031,-0.01941888839058842,0.18204617834609463,-0.026202756150598774,0.10589043432027778,0.06564254211783177,0.18567065408685335,0.09195450940008741,0.302093934332394,0.026725384799708676,0.28856717486979483,-0.16311131426467435,0.04564354895741663,0.11111911001474639,0.1434858760620747,-0.04383088727208754,0.47067187767256874,0.3017427091679862,-0.36122802048672925,0.07748972409001957,0.26898332398147135,0.12360502269238106,-0.006809613225995911,-0.4955203571636406,0.32092432028233,0.5202003752000971,-0.07005376224364725,-0.30175661524139696,0.052802066597656946,-0.09958823439111714,0.10576255092440534,-0.0628643260060656,0.058588071309042054,0.08347934685196133,-0.04321050473353264,-0.12640147995817927,-0.0728140267419,-0.0706504954575998,0.24450628291590532,0.1522260060711665,-0.08124449345093265,0.14056469075104477,0.013613839435053114,-0.09793444451305792,-0.28797034270199395,0.07908679801227962,-0.12342899598759764,0.13991329006582215,0.3130487759695978,0.09195668041910743,-0.31091684385244955,0.14435859172282733,-0.2491379313303413
2001-01-26,-0.10630965074234767,-0.12233591217549684,-0.06364806455364683,0.14766447553920595,0.5455978124011656,-0.02919901046740347,-0.3101576361035124,0.5914142735440386,0.044772983688853005,0.7116253892732058,-0.11342761967705738,-0.451860211452034,-0.13000824181919984,0.10441108188543308,0.10757503124241447,-0.6873290427846931,-0.36381931975938864,-0.4208094226151529,-0.1251052682100899,-0.6128719175479724,-0.12125348530368388,-0.07563900271590064,0.6252504942513746,0.1635926180930899,0.6559293575500829,-0.2580777787356509,0.01811184087101399,0.13096573555129243,-0.4304809150165812,0.27005017034174666,0.7882519139169135,-0.003125605561039759,-0.06411998258414191,-0.09851881590418483,0.16796815473746735,-0.10558416054620554,-0.0007806574619007747,-0.0930232465672329,0.1388517042344767,0.07016521677701897,0.4042866992067416,-0.23246011842542202,0.7282659209368666,0.20104909712185054,0.14413363255183945,0.2127686895165378,0.8676067720161789,-0.11050362023413038,-0.1517227526494623,0.24640354225070515,0.06861688146609053,0.1427611122854205,0.016302281182442088,0.32004774296077376,0.12442620640052383,-0.13671409623966785,0.14775459962183318,0.3191808589191715,0.3303611975598567,-0.0560234099275485,0.10516069000359367,0.19072664441657156,0.21211843522418672,0.5222156333574447,0.3839348882606496,-0.10527446197964574,0.24513734523592667,0.4853237241931752,-0.06822595826927191,-0.15493814178845627,-0.2587248116912605,-0.576863323205179,0.6189707652668017,-0.3998305208991926,-0.5164948803184601,0.10119923961938551,-0.2355135793982201,-0.0659017831684938,-0.013552848973726437,-0.07686447828906906,-0.3558858686072839,-0.04062829175121917,-0.1531222854210092,0.36583518467065873,0.09304673441972973,0.6700977474884882,0.07347942511041886,-0.6158151423198559,-0.03752537081999698,0.4186740150056508,-0.14151160747961175,-0.4506097618113816,0.3990953987791393,-0.40905731713062343,0.03405405474656739,0.27432531804594207,0.14427759020129102,0.10229072240278035,-0.009544952275250942,0.08438693887833411
2001-01-29,0.03500406105182253,-0.1728036052585573,0.07447103758159576,-0.2448973172545034,0.304008838805965,0.030243226082237857,-0.12425112435253326,0.45777574616541394,-0.06063766824623848,0.32362029812916815,0.21686185941428898,-0.11631958117746347,-0.054679859607517305,-0.004809466376368707,0.08040517029521382,-0.5160987676684268,-0.019910959462381302,-0.1042578670839114,-0.11935151675060539,-0.2895150824695572,-0.27292769089341534,-0.22518242749328554,0.5743181343584088,0.0043916223308490005,0.36869820110482493,0.22412430569189126,0.023437664082970038,0.08505495045811713,-0.01991232365037314,0.22505535961816528,0.5320738517838445,-0.02227718040821445,-0.03486791709607354,-0.1571161933223329,0.17706354898808335,0.1089086512462642,-0.07614573949718255,0.04001095253850238,0.29263507915646336,0.028173674656040777,0.25142302537479916,-0.37482738990019804,0.7217496679508753,0.30482019691096246,-0.04605853213616508,0.05137521325721415,0.39411304233045036,0.13048375779489882,-0.16416191291368795,0.1719820496615155,0.16386907868054248,0.10843122604919377,-0.038582049851424625,-0.2266232887769726,0.054719764085689,0.14422389652420706,0.009478917722258274,0.21160057609898175,0.019426828483948663,-0.06810892635436716,-0.24076771313052187,-0.04799808338532541,-0.1618663409520446,0.3754510192081776,0.34926486983059735,-0.026636948805507068,0.007120645535551685,0.7813125780992964,0.055831210011287845,0.012757265842913118,0.014600782733341946,-0.581859153994685,0.6611791650571723,-0.31554208626044633,-0.13234099762709886,-0.008729474668965051,-0.14424199754033581,0.15662758416861858,-0.025425504411087717,0.0784075352867433,-0.19057662564589295,-0.40410270135510007,0.39451894578905344,0.2458543073788393,0.11600973873917281,-0.1919385729724498,0.21682063398115284,0.16647578723808057,-0.06906821709354243,0.28010928233811133,-0.035342599828297745,-0.19428213186353296,-0.010867115524167704,0.05779694065984391,0.11147965266970529,0.1564582002069907,-0.033578411747026055,-0.013840441288532943,0.05180928048955829,-0.17453877912940502
2001-01-30,0.06586402937944631,-0.1430868789252701,-0.01003266672475569,0.016703814328254595,0.2841504254881546,-0.01572654566676411,-0.185069508840982,1.6398244609110484,0.01900447911959013,-0.005785100952860131,0.25000214436701584,-0.3081224052919022,0.012297927680551988,-0.04437107632030707,-0.12799440668713946,-1.513256910856793,0.22809049665701747,-0.029285547550215407,0.24688788624087096,-0.07537292648432427,0.056204111702556514,0.1862419383700416,0.6414829535191785,0.0031194079987514043,0.3294949990120813,-0.31787632195706844,0.03904799505603257,0.21022379563745197,-0.19056976233781486,0.2706068064001205,0.3020718796038411,0.08051101999696111,-0.2472275206835413,-0.0584411435005412,-0.05015696106078979,0.02549281092761647,-0.10223642903415958,0.12624335352192784,-0.05370808558651878,0.38973336455369106,0.14093976330845143,-0.3398482367526214,0.22287749035283097,0.20224750521358176,-0.018577218271035825,-0.19524579518370055,0.34695753092301584,0.02384635479228525,-0.12498010046294775,-0.2942034754567251,0.24744239508591717,-0.10650216524429708,0.09132292128321914,-0.21431565318060466,0.11154214155829917,0.23331559216539582,-0.19253885400221898,0.12435054638576817,0.10049786474681939,-0.0710018366543561,-0.02160152227479365,-0.019696283967141487,0.18042649311962275,0.131523729806759,0.03954865749534522,-0.0985694867867878,0.15444190222147622,0.6803788317754278,-0.13668100055072196,0.09142478298601434,-0.21266740005519896,0.5214172582150651,0.3178778290746914,-0.2134360798330219,-0.15917247024772269,-0.14046597865226262,-0.0645944684575187,0.05446061478445074,-0.012433529636829112,0.16414514749576764,0.058555043976505225,-0.4946066310944843,0.3792833592821818,0.07433239681091008,0.06820893868842952,-0.021958256221201417,0.07487396208502556,0.24245730307425398,-0.21044434279697413,0.03516935560213407,-0.16171726490378782,-0.14650078474622616,-0.09043164280107673,0.016891050647715875,0.07004840025950486,0.11277686705325629,0.025013668145210725,0.012072162319155262,0.3536675945344307,-0.5019840107988544
2001-01-31,0.08404522066598177,-0.2613098145115551,0.13533449418890242,0.0766698224763727,0.6152102474182864,-0.044162744993053386,-0.22914597670259498,0.3065918695374149,0.0064276707296056935,-0.49789894593512285,0.22485237664458527,0.012692391783006953,-0.10050718247024096,0.1235417001903219,-0.08192971559629997,-0.2933789977384738,0.33839388634033263,0.30648980360340505,0.17184513276320185,0.7424139855158007,0.26043524884835517,-0.051799866918787,0.32644102787604207,-0.24985627073470817,0.32017948822031134,0.031295441737201425,0.0746894769739065,0.10566855262064871,-0.17435772281502024,0.250561999081311,0.6055464419229578,0.08435937983807311,-0.23323865766687726,-0.14416707091863448,0.051611183757908644,-0.15215616942749144,-0.1621669603083449,0.1986181125690372,0.17771171531811905,-0.09060032443368823,0.24989956586096723,-0.16719566713053713,0.08418226702536219,0.18562931538259916,0.12298915974174504,-0.05611706436464311,0.13297266691793766,0.03464834434389554,-0.05945107655751869,-0.35512780721133913,0.169752190351011,-0.20058210482564945,-0.12952203420617922,-0.30306348294054597,0.11975204641597266,0.09284102200511672,0.2341454003732536,-0.08647628158472796,0.030986590568066553,-0.12574810909871922,-0.0853567759985163,0.025626483614366233,0.26439022744197377,0.13966659247071045,0.11801829958717769,0.14158959448577987,0.1550615304158451,0.5876143136952917,-0.12101962905045184,0.13175123852879866,0.21288076787323837,0.1369703890922974,-0.011722053292135576,-0.07835831699184963,-0.13004249990547395,-0.08767831163879118,-0.02360389075613992,0.2340734814051213,-0.07256924906765955,0.03360741066674948,-0.12928395860705885,-0.19584925763334413,0.13868782683040534,-0.16526063644253536,-0.04121250752379353,-0.09852158725313227,0.1573761215003394,0.3805902610811021,-0.37025810068045323,-0.047138465635243876,-0.1495519463623224,0.20026586628215431,-0.029785863204880154,0.014525012946134555,0.09592455989214525,0.06097544423557175,0.1899036315322093,0.24874243570370286,0.12594468455105437,-0.17836768150491847
2001-02-01,0.10693546222032205,0.06929811824420418,0.13641861661692015,-0.26751129939909946,0.541852471335044,-0.158400488085477,-0.35279034404993226,1.4241615559764533,-0.03064867780413348,-0.19915341608958015,-0.009114044006416048,-0.03456431238250593,-0.1168569248419489,-0.17726526269022433,0.21879516464145257,-1.2257843537112674,0.20450384854350573,0.34966205931444055,-0.0048066290093105625,0.4818041594591044,0.09977451424085407,0.014461794105280205,0.3088683089452013,-0.04753679979366486,0.2215414451063943,0.3943432083981479,0.021233784883105008,0.29204136733443337,-0.4429860450794477,0.3312240642160719,0.5983442839469795,-0.05749254775192532,-0.36924751715383286,-0.0719997492917768,0.12478871648159985,-0.2626040465505361,-0.08593668894475219,-0.10787870802113161,0.13194443653607874,0.220366918183606,0.2551557870430133,0.04114129875038423,0.5588958058043485,0.11677624066649939,-0.0012908828622449616,-0.20558139322409538,0.3069026679290224,0.05448154349353142,-0.09249094709305661,-0.3081437181237009,-0.004681708868503215,-0.1572378029863691,0.08995764939590245,0.037522275403549764,0.09997685568777821,0.07126380285533644,-0.17574190529927808,0.20534086334464124,0.09275906198545547,-0.16595521956130374,0.25539450167917144,0.035483840503607963,0.15710246161250216,0.4686054919285963,0.26538163605459186,0.26987637420177873,0.12272989902837465,0.19714248272240967,-0.4713270131566424,0.0451726147561376,-0.009219537037478576,-0.41290698309484136,0.21193295948661514,-0.46769822390761195,-0.21119651362290368,0.011443285321695989,0.0037133945507587273,0.1469564230053995,0.01651863677304487,-0.021503957633805734,0.34966930134074076,-0.09159954962282568,-0.2165465968502068,0.13296020708188086,-0.028741993614506463,-0.3292384299036941,-0.004709025076662315,0.12922072783009333,-0.28138585315510956,0.07481064028768143,-0.08368448399560481,0.2842343228316313,0.055474457490317416,0.1321144460330794,0.14628695196833333,0.09522791594404975,0.250405653925716,0.2620045655738385,0.1684129588649844,-0.08978131703136666
2001-02-02,0.12024942443355058,0.07126555877988074,0.19606490090481207,-0.41056309801559454,0.4025648006126524,0.001789233770931295,0.17151240515851754,-0.3005008118640929,0.025661747834569006,0.1939500761336901,0.23241920002407251,0.15628511216050536,-0.09045256362979694,0.07452885049011233,0.22902359045609963,0.2874621902266107,0.18178014360573636,0.13320975425917086,-0.2197460657568203,0.17953930250429578,0.209230854842416,0.021097515066839035,-0.11148109077196697,0.20134436291544527,0.5251403377335533,1.3028452334011105,0.21487966271372325,-0.004508657230855437,-0.3815588706405663,0.1548279361468783,0.6774299528702222,0.02524450159054759,-0.08368153067489507,-0.09075916518608247,0.21432107416944418,-0.24415462328848878,-0.12627193600477674,-0.10974817162801491,0.26448680635335936,-0.017602251938748793,0.22085275244314517,-0.006540636174269655,0.7753221257595694,0.4848210524007284,-0.12929924863095765,-0.19237093346352432,0.04858825089024274,0.11743054377201854,-0.1555327453553906,-0.3074653749787899,-0.01494500207308408,-0.13324010707757683,-0.10155196562951503,-0.3265165583015939,0.08131025783558483,-0.3533625064175521,0.0663320314598658,-0.0665721077138343,0.14758577062455813,-0.3222512841394383,0.1286872545339535,-0.14219014485989737,0.31458275385422335,0.5174212336962575,0.2721793581661733,0.27688508283964736,0.04632126273708889,0.5262482948567091,-0.5566861687091,0.10187513712602997,0.3212331983719188,-0.5755707492120886,-0.4521606329162892,-0.32613315894509837,0.1427662776685929,-0.038809730154065705,-0.2527086357953771,0.11986186880346279,0.04690117519800729,-0.14099196869317285,0.2614611259844828,0.1199250514494554,-0.2256553814867184,-0.05728756553322067,0.26814372069183734,-0.3474433899559896,0.09567024614019294,-0.0035058683999382536,-0.36918705836933435,0.23436925150693577,-0.16588720340927157,0.30477899242749035,0.058366309938748584,-0.0032057269689093693,0.02373997293417214,0.22889570929512526,0.047691482640202836,0.25070890978003196,0.05521116830166054,0.3881337526046431
2001-02-05,0.004171180129906903,-0.15920259425650532,0.3103609598548185,-0.5099506895923782,0.630124367832993,-0.0010627017639183887,-0.1997739586850661,-0.6343163256646165,0.06219896898856756,0.5009517155780127,-0.1339941332027507,-0.5366145994854733,-0.24664169222389146,-0.3283779724879088,0.9481027857450757,0.31729962197107264,0.14713427335962406,0.708062679293729,-0.06375221113801795,-0.07816490307889065,0.11240854745133627,-0.01014038534132707,0.5639333134567536,-0.28135333169992727,0.6282570014668319,1.1294818398354323,0.344089521886924,0.31330921520907185,-0.09444828772059279,0.15019381901236703,0.5551287136767736,-0.024230790545587452,-0.5191857820564743,-0.06459680337030786,0.19286814614116943,-0.5086349028407238,-0.2381561025718495,0.025435949055213333,0.09163854477127543,0.35820568897053995,-0.10719131655692471,0.0022921844674499508,0.644698711864608,0.42720636238735643,-0.18819090840965766,-0.2696922036946382,0.2845228082899693,0.3999715571169573,-0.1378471464783641,-0.4096751068428845,-0.1819432777492964,-0.045214580545751774,0.2697017682185264,0.23312032932277918,-0.08362242017658476,-0.37145803098981955,0.10513536290237471,0.2961244844430238,0.17366768903023905,-0.49558402453789807,0.46080293924006616,-0.023192363427321352,0.2557057122996927,0.18292258827399016,0.23700511037841174,0.061229590276480984,-0.24392361121869108,1.1664462420240311,-0.4700234754850443,0.028845464945154987,0.6421246625298901,-1.6137593439272206,0.5945294797871645,-0.6984625347522526,-0.09401083524788612,0.1487518352908715,-0.058091882034406885,0.5045993182045867,-0.02442478306597277,-0.23359569656577792,0.5151602557905386,0.39041674211426763,-0.07775996528569318,0.28697278565220746,0.4778285106419239,0.2722239056743544,-0.0012278693699890543,-0.07736091000213116,-0.2359322244740716,0.0855491470787401,-0.05025851767176893,0.10911797096942757,-0.3231324336001503,-0.18267718837916525,-0.09575254059135813,0.06475517707796055,0.6607216112573814,0.39455358584868633,-0.146126171012799,-0.14402063748116584
2001-02-06,0.15111981199326852,-0.08012322410408998,0.25869870795587624,-0.033342450194754195,0.8546750276911067,0.10183183114905235,-0.11208820316567761,-0.39897527298665897,-0.08902397410071229,-0.5877766519499859,0.08128202678507068,-0.37356368719246513,0.21127926062612093,-0.06170007202611877,0.6571489787205319,0.5772334467848286,0.21887024728263135,0.6469546911780308,0.07602913748520282,-0.46645620477421373,-0.39083877191148186,-0.3709063061299286,0.7683557728366114,-0.1455783290072939,0.21354847440995245,0.46586117337503463,0.05011979265754794,0.19095436214178133,0.035024677990718935,0.3330708330944482,0.1969822075299776,0.06953245119813434,-0.16028484176389987,0.11889198466523564,0.1367406078768053,0.11177064031608437,-0.07602010251383805,0.10194878154762434,0.16294935429902285,-0.1752482974009782,0.26201953270966766,-0.19222424600878402,0.7492815285710402,0.24195740365472862,0.2189532929293067,-0.15893222904648627,-0.008596330454581802,0.24954006386017982,-0.07269655514949892,0.10063286233473842,-0.04428171063850152,0.2248245692020087,0.3819546687559862,0.1031931679325175,-0.19844336872315818,0.004490439609975873,0.21762859300652182,0.8135277528998186,-0.09323756634236384,-0.20067010987628547,0.23863672068164452,0.07766123957431785,-0.20574163198600962,-0.07996970524258162,0.03778063854470495,-0.3885497105066999,-0.1964175798345957,1.977611151585784,0.17169671340043158,0.16919678182163608,-0.6734811815468655,-0.01309470106421479,0.291689927121184,-0.054955607109478895,0.0405418663194953,0.2731522379801679,-0.0009608250822648358,0.3412234559645269,0.03964291396534969,-0.036221813016567905,0.07911144967305692,0.155871353875918,0.026049731954664535,-0.12028797145280298,-0.02003300040422353,0.13893958423016958,0.20830401334642393,0.1328211965857872,-0.06121051820654376,-0.13407529807646276,-0.10530438722632085,0.2131426396634379,0.03404867951852414,0.2734102005679128,-0.16601453492559975,0.16456225915668637,0.268222681276422,0.07332755120466543,-0.07029504415448534,-0.3322567102458593
2001-02-07,-0.020802392719410423,0.17831348016193346,0.21827973814237095,-0.31022530821153543,1.2184601836790934,0.2441791311272799,-0.05269496484674038,0.22060848972734742,-0.08619760841718119,0.7945263178063423,0.10918886741736536,-0.4211607994278216,-0.261967025943023,-0.050967712447237974,0.3456580461564692,0.002142888957832615,0.17692648231894195,0.3793419546718154,-0.5757888932457497,-0.9147745332453824,0.19728809411701342,0.20424025205269916,0.23773652633437894,-0.07801222524148854,0.43664513977976094,0.5258421877491106,0.029656790780333602,0.2883881974142771,-0.6048679828842206,0.2808749257730874,0.05866353194111076,0.055325162085063745,-0.31781851521180726,0.06505480363716448,-0.14583009451301746,-0.3099846500786963,-0.1677993256464704,-0.43436243872850727,0.19336020080218833,-0.15790657850299347,0.25393906916253167,0.03227819234800505,0.1299601508614678,0.604216153862247,0.004142245310384025,-0.22921771633088894,-0.11255338095984532,-0.32498012681928307,-0.04762085360632868,0.2010793990269876,-0.3324228302306482,0.273642137440998,0.1335087903875176,0.17872226515481188,-0.025716253489704737,0.09160385442672503,0.38499823229016505,0.2310399094503625,-0.2673009976042799,-0.2603539933970748,0.38094792142077843,-0.07912303094386505,0.10627412937122079,0.31302696418908904,0.17409864205885067,-0.1598446074594577,-0.06842080785312903,1.0495751798863033,0.16512504858594948,-0.07983497561306126,-0.00965113258133209,-0.44337401712995106,0.3085633289421327,-0.15627286730780982,-0.1602623757534786,0.29459890070695627,-0.42895892563048665,0.4688425327450514,-0.21384792844711661,-0.024705776536640328,0.39985779099818747,0.4564307563202389,0.1736311584910347,-0.16272046712814942,0.20727944704366544,-0.25086623512003803,-0.07272497142805151,0.44370579769932994,0.01922690022509579,0.1014322907725229,-0.044486865211547474,0.7944835120945944,0.09073544026008042,0.2704662037558223,-0.018361874601156767,0.25008259367791086,0.29575125864382623,0.06593994202180115,0.39718488787110234,-0.5259886955248365
2001-02-08,0.15642692987606457,-0.12085414505282471,0.15062730236380922,0.010750770837297337,0.3098342173298145,0.04749232138428838,0.23186379925381537,0.4661229295515907,0.054037893424088414,0.2509012617712676,0.10526461018632717,-0.6548197048307228,-0.20116492816894851,-0.148134846674168,0.497412514725655,-0.4567500179174126,0.45348738048174175,0.21278108025073644,0.40269188471931516,-0.4210929813908389,0.5511964094634172,0.47348654461059475,0.8075391396953635,-0.2064989718353192,0.3158184999040713,0.19500297526426452,-0.023048058691453405,0.37831994609741043,-0.5068664933439888,0.32855264916771226,0.08749698160838744,0.17923577906234944,-0.3359933753603555,-0.0820411908163632,-0.16129016701089963,-0.07543963166481828,-0.2609000199933038,0.029215008660486895,-0.08447712019626437,-0.32475416849573824,0.19840867788508157,-0.3762000941566948,-0.029498024394481268,-0.4710764872169709,-0.05226772837249976,0.042600503266138526,0.041238918666356185,-0.27420550578697866,-0.04549203651838006,-0.1901468846903475,-0.10094335507691428,0.40421080503831996,0.17513722851395647,-0.2557675348898252,-0.05922546399507035,0.1708389263713475,0.3862766421367785,0.6072822434596259,-0.265392642888237,-0.11619342520778611,0.01864938561169157,0.04122496833354841,0.34513249592277334,-0.7032103650963668,0.2759615169016919,-0.13358342931921716,0.14993206147632948,0.6836350111128067,-0.28153185491223176,-0.13266667626406678,1.1366008132165462,0.09025789969838892,0.124665825796898,0.04310460320853121,-0.07135066376620852,0.23949404146846834,-0.041047224987482575,0.39458329750137505,-0.24770202265764266,0.34931828080824934,0.34246622631952406,0.0753761765280049,0.8440805307559273,-0.3905122056000544,0.2904020634377873,0.49665882432536296,-0.13403587703651854,0.4120964283737362,-0.20079672213104607,-0.2710399161662344,-0.16411715526237663,0.8751082023383766,0.09623112913728284,0.25693779056334565,0.25190206493756007,0.10548039102810211,0.026321744771650345,0.4352684548136097,0.1794477197551425,-1.1959351236680693
2001-02-09,0.14964658745549497,-0.022872207635591738,0.21630915156055228,-0.3773493066089696,0.43316520067811765,0.40812016508661564,0.6214326202514471,-0.3988217216681104,0.1037876863962165,0.8346989073228264,0.07161789386459746,-0.236461373239014,-0.25832977661872847,-0.16504917041308165,0.49106618409814484,0.22874543425506658,0.2028203326041277,0.06398823987173759,-0.17540776979654485,-0.26862973921538885,0.6282062290470727,0.25452938850184,0.8570999795314679,0.255826197903667,0.4387040484862742,0.4563886057995695,0.43435932659516396,0.3424583700354759,-0.38742861012272567,0.4385400213709195,0.2791884145403823,0.11550566488357604,-0.35303161443426917,-0.2500424062683704,-0.10103506747774428,-0.3426398529954542,-0.28546891511337696,0.24641671015994118,0.1185715054311584,0.23864619486852262,-0.10650994477102756,-0.22954142808756128,0.4485327935743097,-0.009790147045555316,-0.17652899298676872,-0.05405785412101349,0.012541225622513608,-0.08233231312941104,-0.11475501790274228,-0.3144502898579971,0.10022070312259125,0.09204367788774358,0.11970699113359061,-0.2205133149780328,-0.022869970223549762,0.6951416958283878,0.09012915809440092,0.5735562095050231,-0.40810338910884447,-0.09094612477161457,-0.022854746943599933,0.20616422982730676,0.0031362569397975553,-1.4418413989868755,0.2698048284667462,-0.007749495800640549,0.2991664915023986,0.3616139290617367,0.24692769266999046,-0.08405008702969514,0.8817611801040238,-1.0202601419377773,-0.20762134204870047,-0.3178951315264262,0.17398446239346976,0.35188019158510025,0.333402946234053,0.003615657626531358,-0.23361773303855682,0.16806576827392522,0.3660700744656036,0.003577292950535072,0.7769781516183366,0.07548083226295033,0.22971760018340884,-0.17192784148486212,-0.1584356469229346,0.6188132305184367,-0.49266239037039433,-0.3554206098259188,-0.13344575529276298,0.21651842055960158,-0.5169677093333414,-0.3647063039379612,0.3625264859146361,0.07608272461827711,0.24561954154520158,0.14017766971059145,0.34760969793459306,-0.12356990458698501
2001-02-12,0.22470278485936854,0.13385672410493749,0.2904648191950548,-0.28049341155821017,0.44507341753546603,0.5364781933531689,0.5688676876787362,-0.28930834330199107,-0.041141893140989504,0.3799917495644859,0.5794517685071362,0.31564726764371404,-0.16145272065593103,-0.11985664079364461,0.32513450106922376,0.3153535262579766,0.48008961765875485,0.12505117696337129,-0.14835729531245428,-0.45261869080647354,-0.050777296228312674,-0.06872781434962404,0.3483298862467278,0.015983538118452364,0.666307494231489,1.1800690536861735,0.6213126418541493,0.03435762421393593,-0.8387721162483512,0.4729203794274946,0.5783658495732341,0.11231026329472485,-0.4014743006477336,-0.1013004741485696,-0.1313351841929881,-0.14637404024751038,-0.21835633673919136,0.08513804293356077,0.05160974153797196,0.2578110570432548,-0.08319646980416537,-0.192262148513823,0.427003007479956,0.37592329082963555,-0.3427417794039163,-0.24195747399651144,-0.36045813744805427,-0.5318616733336516,-0.014219556069362902,-0.15221810606486114,0.3877476249060164,-0.07875744084469599,-0.08579130477158263,-0.5917867682009108,-0.10084270051771024,0.38113827581190257,-0.419969004458002,0.4416796786687778,-0.6767419520444832,-0.4251738134585081,-0.00020649036614094936,-0.057376179602127576,0.9017364232551797,0.2509602501361861,0.3273296918888649,0.05633300390023964,-0.12058206138866574,0.48303092781151025,-0.9769373853096565,0.17134495701438404,-0.11527960051978037,-0.9213377524904943,0.2846410668386709,-0.2810689068080979,0.39538567664945884,0.39076918914661557,0.30605764013395115,0.037976306239111454,-0.1806729669849232,0.01652123878013,0.6861359785222835,0.1060150157356505,0.4189481274369488,-0.06147182841997206,0.21679048626771238,-0.2041752598649923,-0.24993621614393527,0.36184378846534115,-0.6745051966070491,0.21593960156716663,-0.049043968872530375,0.30460129237463357,-0.4989424197602187,-0.5608116612884768,0.22131087072930167,-0.045039084294569535,-0.15239929785629633,0.3786250761652157,0.18284812876163725,-0.15461656130398013
2001-02-13,0.17458781386625732,0.05762686315217863,0.16048785448125288,0.4043800733915157,-0.7021678377790207,0.10746387251929819,0.1019241747334487,-2.2837062412778018,0.2729075313652096,0.5583896108282052,0.5283874207108534,0.6075814905643155,-0.26425676329816833,-0.1752265624379632,0.013093142590302961,1.9177420299852308,0.5108741487715631,-0.015508782629344799,1.331407884140899,-0.08895069699825077,0.46500465421894893,-0.37679146570819133,0.5066815173050578,-0.19916278129927303,-0.007702710600530175,0.46836036914498874,0.3475419731357253,0.0002443834748328756,-0.5448006987126736,-0.10112955748303924,0.2900303767516664,0.30471223658572494,-0.05118393442335258,0.21698992268205813,0.008345270169393952,0.12894872401732835,-0.30514534828185225,0.34559540062549005,0.33428891642180647,0.2578123872059414,-0.032252361919662006,0.10750439433635334,-0.3906798939660735,0.5618346237186228,0.25917883705780936,-0.20709186724636286,0.32295648097142704,-0.3535585359632329,-0.0981445411804444,-0.27604346826554466,0.3018024993782344,-0.3243713238168602,-0.13354705331085612,-0.15898034367224856,0.05915952347003085,0.46413548100420127,-0.03256503174532553,0.23773516566395111,-0.5410003617216012,-0.23041477407336888,0.1474374898025214,0.006281581057353691,0.2501612095014608,0.5679885221076449,0.056558244524298265,0.3467571524528823,0.0609609788434416,0.20113980449806587,-0.9385120366375662,0.060197546955556215,0.8223938343042368,-0.46582749427800646,-0.31170343735619427,-0.21065179270052983,-0.290427966996487,-0.04153255045693546,-0.10237589464554787,-0.0003284576018092722,-0.11324249756102256,0.11455842297587152,0.7084760219635969,0.2235552475087807,0.030225837287783823,0.01674266382970427,0.4010096541722791,0.5070980561003323,0.20083992160324346,-0.16900065416708906,-0.29674226276976096,0.07134165551364083,-0.3788050111385135,0.1963569508408044,-0.1502428677037223,-0.33593796723621344,0.22944309814808905,-0.030656090135947632,-0.0018786696016318064,0.12623490504709342,0.1528597915341969,-0.015775635464708383
2001-02-14,-0.03193534576660848,-0.11390866341762107,0.08110206698370885,0.5754922944632654,-0.10678344907172545,-0.1032498567852502,0.5027381942460841,-0.861165597824253,0.33837419904925986,1.3081442423633192,-0.00017927146298841518,0.03143010262649829,0.0746978167288324,0.22601367204031175,0.17000349974747833,0.475003718727764,0.2790381988441109,-0.040843070234232434,0.521953305976775,-0.4293932774901019,0.4243404132116552,0.2884072212467726,0.41279884866222016,-0.05803555879436971,0.6227827305761142,-0.06684315144200687,0.4264779381184886,0.10545289268229549,0.0302389517318229,0.2766189559862768,0.4262565505402885,0.24477156881192957,-0.09464937139545153,-0.08801447592003893,0.024339538176880827,-0.17623448110066006,-0.215844855026475,0.44706426833579144,-0.03581486033832629,-0.0240463937651749,-0.011446873250986573,-0.3420880758741562,-0.32491389875375914,0.31436593233740007,-0.014686660686360492,0.08761299791672972,0.18813806851788645,-0.2769189578533791,-0.0634537943514869,-0.39388168587627154,0.16464393501788138,0.11469547448063541,-0.2645361186841498,-0.43592938149971533,0.1603863833177661,0.1519569524073377,0.549260998142702,0.1962632055781233,-0.08863115796899232,-0.16508250952181047,-0.1588318103649147,0.20591442434868432,0.46687044075250145,-0.44168720471894235,0.05746283292270032,-0.09126260856786947,0.2199198396067551,-0.06637830945823556,0.08606745982192175,0.08624359978213579,1.6116762280707215,0.3663697225752754,-1.1643980749182399,-0.10771899753803159,0.2909078661166764,0.11968155366169497,-0.0387901184995257,-0.08653193311427848,0.09222337480354584,0.15034754188973593,0.19427026088570445,0.07610177011222537,0.1671939057762615,-0.5514296977622192,0.18924053365335636,0.8950680493303261,-0.11576147631407163,0.07530516106853301,-0.38328826208416555,-0.18539632338985904,-0.31019231948722537,-0.02112293491163206,-0.046484073255059405,0.051826943268716834,0.11786705833569948,0.11618349728469005,0.13257075332820545,0.672784845269804,-0.07608303487901241,-0.04313826999818567
2001-02-15,0.09647732672536513,-0.022637533259350695,0.17622590072238134,-0.1970065011715269,0.3444964975619812,0.01968070297811386,0.035783350428925983,0.07036925756494376,-0.10090367159484867,0.5168946974521977,-0.08338407138228073,0.4628161892230583,0.06674231472457455,0.17117977873193224,0.3580074342935477,0.21301934792650165,0.4460782622128487,-0.17176789912494303,0.23134040236167355,-1.0280290137988737,0.4003613236203317,-0.2793437969174808,0.4257183758200335,-0.3210230097517901,0.3453275093914013,0.7133359474774099,0.3473755510235688,0.08541192842294565,0.24208433729757325,0.4015684028393787,0.6355317961707436,0.15864727435078943,-0.07251003860027325,-0.140221886616388,0.023919074077295283,0.12188574079435206,0.01621861818653983,0.013634802708942321,0.25521574445100625,0.12381876728189282,0.27506152693182223,-0.2726815435072454,-0.04967651851790994,-0.41768241462378997,0.41751881847689715,0.08306447954069911,-0.1721968415066513,0.4530237185126141,-0.0366455167481553,-0.07037578737783395,0.36749971495496847,0.3872780275305713,0.10794183824115414,-0.447577302171627,0.3064478492177142,-0.40919535328216056,0.03178188305228856,0.2477871486144927,0.3961495330316493,-0.08333046896607221,-0.04258839491917852,0.1747170984450952,0.2423208843920285,-0.2580773540434036,0.5115550122477457,-0.25298725380831877,0.007230318880015283,0.8132502538945234,0.08527186606402018,0.09253222848087049,-0.20334132520448286,-0.6699889763335793,-0.32404311920439727,0.45790960619147614,0.21325813287896192,-0.08332842290671619,-0.037491029884132124,0.029367132691718544,-0.2327033536041232,0.4564278977194974,-0.4126681695454335,0.27526937525656925,0.6416161652280254,-0.15115791050357855,-0.15581073860665154,-0.8688502611189262,-0.2458040493802837,0.8709010744410687,-0.20872488404411074,-0.4801524446328738,0.08998969898295098,0.6049709530452203,-0.393931870645046,0.2827122206136101,0.5854361010016755,-0.15480241581355783,0.29943175277221584,0.5589950812353544,0.011716951963483515,0.8082758870928092
