Unnamed: 0,ret14593,ret10107,ret84788,ret47896,ret22111,ret55976,ret59408,ret83443,ret18163,ret11850,ret66093,ret92655,ret26403,ret59328,ret65875,ret17778,ret66181,ret11308,ret22752,ret14541,ret38703,ret21936,ret76076,ret13856,ret19561,ret70519,ret10104,ret75510,ret20482,ret19393,ret43449,ret86580,ret14008,ret62092,ret87055,ret17830,ret10145,ret57665,ret50876,ret48725,ret15579,ret12490,ret24205,ret49680,ret21178,ret77702,ret59176,ret22592,ret77178,ret12060,ret17005,ret13901,ret66157,ret61399,ret86783,ret69032,ret87447,ret18542,ret86868,ret10696,ret73139,ret87267,ret64186,ret71563,ret44644,ret39642,ret40539,ret13928,ret60442,ret78975,ret64936,ret27959,ret18411,ret17478,ret49154,ret77605,ret24942,ret75186,ret53613,ret18729,ret24766,ret56573,ret62148,ret45751,ret14702,ret70578,ret19350,ret36468,ret19502,ret28222,ret61241,ret12052,ret64311,ret85913,ret75825,ret48653,ret11955,ret81055,ret17750,ret24109
2001-01-04,0.0277938912168644,0.2121917518336433,0.2583130349428121,0.0324534244210156,-0.4432520087470921,0.3889735020208704,0.1092111511806286,-0.3093189883421977,-0.1953072542087659,0.730820258700991,-0.3129126350954695,-0.6976029318438297,0.1472416912103697,0.1098997156306451,0.2331945421374304,0.5799737769787061,0.0225052695419761,-0.2171071231472092,-0.1521326033192031,-0.797233295143605,1.116594446786075,0.2918176177126372,0.1137291439844226,-0.3777696127225282,-0.2207958054402374,-0.4863915074208538,-0.1392610327943634,0.0876577544895654,0.4993827548093999,0.1124934294491189,-0.3894506834923038,0.0275615255246062,0.0946299402515288,0.0946896716371579,-0.4143086543901613,0.2609883747996721,-0.0255278358593592,-0.1287542855554272,-0.0165681773602011,-0.4968689537738832,0.2754185044359032,-0.2219866137305956,-0.0810433727119005,0.280220657120052,-0.1961584579830532,-0.236346607546237,-0.3126992929365398,0.3721739984718579,-0.0126088645077144,1.101656927071851,-0.3478790699360546,-0.053503979825096,-0.3307520402022227,-0.675232947802899,0.0372817408485469,-0.0317048398716353,-0.3233173897869554,0.3762138247639485,-0.481001803958606,0.1485341730706271,-0.4523711814214987,0.2862818192288776,0.453128385343063,-0.5606113866598541,0.1398937325573192,0.2318086978365631,-0.3861866712170935,-0.116009118557576,0.0839602222136955,-0.0276310163829415,0.3830770865269951,0.5883418281367573,-0.090720249677743,-0.0401564634489796,0.1038500710086154,-0.1148932896175364,-0.2177022527606597,0.0443414835189818,0.1196689108125603,0.2185423642094835,-0.0668344317254149,-0.4409699812362011,-0.3299351194615673,0.4702080671889882,-0.5360742926058047,0.267213577746708,0.0524859893835144,-0.2340806587601114,0.705501434360762,-0.0111998040234544,0.0259999489822066,0.7108039964542374,0.7939308685020717,-0.1723616143528577,-0.1082624246896224,0.0578274365814536,-0.5143802461875623,0.157435578313535,0.4967645453654753,-0.7632099272076109
2001-01-05,0.08734903983956895,0.22216618493185447,0.46326807926033164,0.17163040685413072,-0.43101307495373614,0.6678850815536375,-0.01253003297438258,-0.3820503490306025,-0.13742431410917325,0.35086422681739815,-0.014692766752026276,-0.12700455333240682,0.03117067416695868,0.08897718576602294,0.24674334152015953,0.6442124987156307,0.10235692051666809,-0.10598236590046596,0.24765820337097358,-0.134954211531518,1.177891433975502,0.33852148531356063,-0.08199030160359466,0.18258406219946896,-0.13033461323293596,0.2908693417145518,0.18486237381480475,0.13969354083007554,0.5290274225332798,-0.008578456166920765,0.08807325842936745,0.06511771738752851,0.10525110181744815,0.3053791736482941,-0.0848472637148149,0.04918705514223086,0.11158506990916342,0.25585900564826997,0.09749654211020922,-0.0019628594282319577,0.12082938644105923,0.22851861282079677,-0.12150775831332734,0.5289473629896071,-0.07499314267073924,-0.06881750044351886,0.03188649169330859,0.59321526308101,0.2014686043582792,0.508467759610399,-0.1856115627369319,-0.5157719241802607,-0.2546890053105354,-0.0966254925780752,0.11775237295420411,0.005344315796983897,-0.39989404621113056,0.24710347163152147,-0.08207130839946107,0.09682713798158721,-0.06908852289721623,0.148012816220956,0.6116338662178941,0.11183126996457185,0.33744843967450355,0.5190325312072643,-0.2840236690257542,0.6719066758100134,-0.46436565873863644,0.14406480205217032,0.5602702529515465,-0.2755134918471926,0.4337035457050226,-0.3213928043489497,-0.07939502578782538,0.006661386742457628,0.026202527664081838,0.38251150999521816,0.31653019916871716,0.21969656211718738,0.3861100913441891,0.07682905903710682,-0.09844862875160887,1.0423020769781666,0.09057343721596661,0.24473422745332804,0.2927152001516436,-0.7036674988015218,0.5881149259286822,0.2754435807450425,0.09847599576223688,0.30600155016367164,0.3208199823621617,-0.7010903815561835,-0.11860656391147327,0.13588892154448035,-0.032176282631630734,-0.0172272198538247,0.6428725886102516,0.19545477724800078
2001-01-08,0.026930789582372792,0.18860538290434,0.16499069874181427,0.4397723284151191,-0.44455227401958775,0.626775162265421,0.27282926561365606,0.820480272672027,-0.10293859299688793,0.018498116302960194,-0.05465918988146456,-0.15734286541288064,0.08055121672644806,0.16937923241774475,0.10117038498899024,-0.3284872250170231,-0.2375579635339553,0.1459904469727683,0.4809676265958686,0.36580569296469945,0.7148935643712495,0.0418995281962631,0.3757653202397931,-0.34541035032572387,0.1313383167359745,-0.5053139176090593,0.0891433350164398,0.20971842823130168,0.6774129525940993,0.3113442499316689,0.32026646546226417,0.07991648365458047,0.19824190909209904,0.2741566392359642,0.0002828449879597354,0.38763003122175965,0.26778078145941836,0.22887693266862483,0.18239916741212348,0.07158346086036252,0.15214034106128543,-0.04646536670954366,0.12341630839075758,0.44735866461395696,0.03169684741326751,-0.0705682015773473,0.4993576221320475,0.9581535107776672,0.18022035723439597,0.704246346664591,0.06208529360655718,-0.24372169566846935,0.036832898913250235,0.25179036950230715,0.09867830856058,-0.06218789194053362,-0.3776500264073191,0.5469086207103662,0.06510385752125694,0.36450183718774787,0.02713210533534547,0.3325991620943177,0.2888992568085751,-0.755524790755876,0.4676907640993304,0.16552881430366498,0.03205657962526193,-0.27807845756570376,-0.1688342839262032,0.07732566650164348,-0.01786736988508663,0.5656056602841601,0.23786415755428839,-0.08190507494048917,-0.27595561537294677,0.04031077188011659,0.3049196382359777,0.1583889954486778,0.2705472596498481,0.04205947142985117,0.18774291989030112,-0.2573169158514152,-0.18148849775820433,0.9088184883371039,-0.27738852099847905,0.04939672486792759,0.22666885566642983,-0.531527156124898,0.25294549950908995,0.24221342009144026,0.2113509679494344,-0.39315648037072237,0.4061626465140946,-0.5761572143681531,-0.13666539954617543,-0.0063978944000918,-0.050829721945467,-0.14543464230519523,-0.17887175623890542,0.2250294706458948
2001-01-09,0.014250237449427132,-0.119338458045125,0.28591983943617433,0.3885096533071283,0.0172887171228587,0.33639847917336607,-0.6448529469597222,0.17850597859674552,0.06004960032220177,0.14438898929232938,0.08867415318308947,0.09523420243114873,0.05220181808671875,0.09021447971058504,-0.05491889473281209,0.17414138878331972,-0.16199516773656242,0.3161764375144157,0.3096137893593968,0.5333063479814532,0.7092533300045769,-0.17791106196779818,0.3676659865673252,0.13372801876020987,0.17225398724770682,-0.2214152550978849,0.05496950598501741,0.06660296826268221,0.6849580475856165,0.1140394983944095,0.1983706950439809,-0.055074809927273934,0.028479694330447957,0.1703249673624221,0.004641262141493708,0.4233091102551534,0.0847234232303254,-0.014663981674745202,0.39903333815760433,-0.03087342843820722,0.2511958266935508,0.12144328341416434,0.5974228540331491,0.7470765486679913,-0.04655941161012595,-0.10202813894442696,0.6718227401740838,0.37316924785779115,0.07097670214037961,0.7189711934614182,-0.08852066672521604,-0.25668805037098563,0.10030765697960703,0.4205279470390127,0.18879888194596392,-0.3194336861303048,0.06069029270794488,0.27049944128766473,0.5303588111794403,0.10182475258882175,0.23051446636281583,0.31246315463693797,0.1833898804628154,0.09261997454724302,0.28817633132582143,0.190857205607298,0.020750929296295365,0.09585761872017008,-0.03944596294274151,0.3348164292178843,0.10340708370000712,-0.37127504348432505,-0.18138841134232966,-0.33003281479384766,-0.23116833598530737,-0.04352933683022445,0.34730981802924027,0.0115386266925707,0.3589509475577571,-0.26499758707325494,0.04839831508098789,-0.022921503714003123,-0.6568439707398349,0.7688348664351735,-0.40003951412395994,-0.44344827037034595,0.36133923986634203,0.040487619444284244,-0.1416942317989418,0.012737207088809047,0.13614708815801466,-0.4132884096405018,0.705672255394684,-0.3703976368928164,-0.10456000284545892,0.1030768776825353,0.12751168812735486,-0.188265810928492,-0.10626895184878728,0.41481848875344685
2001-01-10,0.0776998456230252,-0.18724644008151733,0.17476230135563173,0.0641949429627005,0.18386978703376067,0.4444325836093969,0.07086340716084868,-0.6639304289424902,-0.06301555696319941,0.7947313867858541,0.23692420554789,-0.1955522961633521,0.08394402085301832,0.2887078323435148,-0.2711162495609641,1.0677008389035467,0.0010232788092673188,0.476587952675049,0.6881131827470585,-0.2247748694381231,0.9039745766645683,-0.14478631542374382,0.07531825336988196,-0.15119295626388285,0.044960414374761136,-0.25502985063032724,-0.10399005596283953,0.06276370175204166,0.47154556749927234,-0.17189381401229914,-0.10552240258794018,0.1413881304972187,0.26251105163007216,0.3715645867776668,-0.14914125042406226,0.3225281106622645,0.32953619188302863,-0.053860408438595256,0.13477893026677967,0.16871378387174157,0.03404073841458249,0.2504870112251037,-0.013393297187403607,0.6458524493133297,-0.25801554671715055,-0.16975823198732518,0.4397024720915712,0.5108521451910931,0.3717585581349413,0.7573446827939017,-0.15916068615929047,-0.1443450432825261,-0.09120279835777843,0.31262578654388395,0.11112928211784037,0.0582230943906069,0.10974536822298225,0.25028772648418346,-0.016597666856687142,0.11934637913413557,0.23050335459491647,0.0973926429079694,0.436916297312149,0.5371772559599601,0.08447559576614282,0.1551866609210951,-0.29791676613247386,-0.13377932218107647,-0.3829444078295618,0.32397643127648496,0.9594366655140721,0.8934725949766219,-0.943932438649935,0.3182997980504546,0.11629902043769264,0.08503315067457723,0.15193552069408323,0.3670183906946251,0.22753914843546102,0.14500949031715582,0.2939831469722584,-0.24481481438746452,-0.3438706104053814,0.5773733061094108,0.08871992927010634,0.2635984119062066,0.23654219466888396,0.46786438516238893,0.5324203076430251,0.16334317725396044,0.2372282932358189,0.053385537629335934,0.17481510959029653,-0.31540544395757136,-0.0488577889233807,-0.06326724063712187,0.05918312570685508,-0.035281419692254616,0.2174137665748421,-0.552726931843011
2001-01-11,0.09983768830400544,-0.28002918311227226,0.19218000331347204,-0.40188156545561976,0.3811685044937102,0.2543375443126039,0.23971820427182614,-1.199095524576746,0.08193951057331071,1.3352297545671965,-0.056981428218212164,-0.6707084418823986,0.0386683709247274,0.11518543447707681,-0.1346799870279275,1.5926753292205393,0.010354494014413821,0.21659239416724646,0.45458687063728614,-0.43789275797519783,1.314874763398851,0.129041159070094,0.35282087963769,0.39984774593871075,0.29393001454480744,-0.7383446292241963,-0.16827254680171505,0.36334933765018324,0.39696720982636674,0.10746689098695619,-0.47017170333617586,0.17485052254933275,0.07991582600990474,0.13868050458321365,-0.06070057517989361,-0.08840735461509432,0.17655341868196608,0.105317769297193,0.03941633970508136,-0.047944694738122275,0.2642490600787391,-0.09875512467489778,-0.03124303149929144,-0.010783288701609946,0.0921287484071822,-0.13431850229591277,0.5698832018328278,0.5843775389471118,0.24674354321535225,0.692498573213712,-0.36105603698750127,-0.08495233885617146,0.1135715808911236,-0.0407690566420021,0.21717772856819992,0.13671813850940606,0.5808167659040917,0.39321244543469147,0.047330481887172975,0.015768069828043615,0.2041772497578262,0.2656844968645539,0.23051041875770314,-0.8266202592778938,-0.33457357491026757,0.22604211811328392,0.04181110463346164,0.04144277521336513,0.48763682117734397,0.14359060721310307,0.5233194447618228,0.7274807643767885,-0.22860351465887563,0.08962499262621718,0.24592742268854229,0.08209226578371945,0.11626041264056323,0.4151170073549774,0.14485651719801262,0.07331774811805862,-0.2925627009572106,0.05955330739128246,0.13614514346836604,0.3513213127008092,0.024442962065972927,0.5586742290985399,-0.04521033651657184,0.43806315611956403,0.5560531011856042,-0.041949603582362584,0.2274706855591068,0.5043442725091823,0.0326216017871468,0.1046016323126884,-0.060381554462775926,0.09111043079010006,0.20524493513110897,0.02835995536702263,0.2192097751271718,-0.32090710153771407
2001-01-12,0.07220806005390105,0.1751348725024948,0.305433530041922,-0.7148722303832807,0.4020851657169732,0.18916666692429226,0.41582547068931597,0.7328664614557159,0.04687673336220917,0.5663057289953735,-0.05441396356070198,-0.18527104439683065,0.03127948590166831,0.219839492849756,0.32569074655072183,-0.36902510979648534,-0.3304719150414244,0.008092835402980919,-0.07749023651877303,0.33242924858367584,0.41550016590123007,0.25933940389613874,0.11458273465177062,0.3560284268599937,0.3541973032819738,-0.010253334419844056,0.12779954768922885,0.38207693682492677,0.24491292120327082,0.009902768474047757,0.2622622941565644,0.019912627651212145,0.12705544471645563,0.3097610194037135,-0.0752882514990151,-0.5288339826577592,0.0703956443540431,0.08019352768123948,0.15149015367482582,0.22151764005476648,0.11439769231536072,-0.15576713873709463,0.3383136201572953,0.04908775810574045,-0.25854128130204374,-0.16230421496843073,0.25431331094194365,0.5917973744632139,0.2936985033665638,0.6768285215260595,-0.15532824051513774,-0.20226976828350535,0.07100374058758785,0.43630374394225474,-0.018167797334186386,0.1406398090464533,0.2207903274022644,0.261815560993709,0.08490414113067893,-0.1384998721466,-0.1101274259571446,0.23313919504156283,0.12588659946194605,-0.6303904677621182,0.06919845198406732,-0.04468044280910578,-0.028665350326015374,-0.4060228597673865,0.5575022524492742,0.12029353962781406,0.3672392474500898,0.45974551471967207,0.45573524116275776,-0.14984410233421963,0.5245089411399725,0.2672276182110575,0.2699360783291556,0.23881553457514262,0.14227073219222303,-0.18194406280506797,-0.023638690131088314,0.6063561158988275,0.11839890800121265,0.6847487758287476,0.15306027875089678,0.14046710170403268,0.05306230303250886,0.07890558184917779,0.314475451039677,0.2219125582847823,0.2970863694746923,0.7681478818672088,-0.1274953556424211,-0.03377004083780303,-0.047058990532111974,0.006512652082915619,0.030855132968388675,0.19789019835861726,0.21600480057029892,-0.20651840408074573
2001-01-16,0.16714154610495585,-0.006875411613589141,0.3642666367886365,-0.46192599511675225,0.06908589036485259,0.11585290928482488,0.014691744429883672,-0.2084242515303595,0.2734517627085327,0.3410422054481843,0.5463302726483501,0.15660367370715328,-0.24381935974917046,0.08132914203276463,-0.10782412391571174,0.5975263163044956,-0.036778404383271616,-0.07141679709801858,0.6713265103704396,0.2026188458424981,0.6454170328110843,-0.0013604651573325788,0.4927473932192566,0.14143618967610966,-0.016449689118200706,1.105112666104732,0.11071804826617163,0.2049015389887398,-0.21750580980487974,-0.2689663031377345,0.3630125862352154,0.0686337003326929,0.15599010889979026,0.29051573360227306,0.0337577949485934,-0.025037818912667247,-0.027529826495750694,-0.05911443925481333,0.3960464894427164,0.12920753699984217,0.3478834234696594,0.09178586956447694,0.6707472589320169,0.33293073315985355,-0.24180975001535154,-0.05982540270031573,0.19871477259523357,0.352840486211769,0.0754317961252834,0.16474658224631886,0.0729645824005303,-0.2699453990182287,0.13923300136061967,0.5563799668625846,0.029369539472005445,0.10333382578488734,0.14858672962447572,0.04376042903271668,-0.10581551283096544,-0.04720990316675806,-0.03833167653847919,0.09656861770193209,0.020194826838316148,-0.11658159419954271,-0.04350589102371697,0.16061590985595758,-0.059974635835897704,0.037724500860223796,-0.2806949982121478,0.19361258198437534,-0.1619053052258987,-0.8289176187903833,0.9492977170439943,-0.3890983951862844,-0.14680626328433402,0.103674778403812,0.05406466317387946,0.31297724450778414,-0.04898594334997211,0.18582714107409812,0.27856143706246544,0.5835333790605128,0.15227169118857997,0.9409543717403154,-0.0002972820583688352,0.11949692789856774,0.5127213412557622,-0.1930102030146544,0.41784377609561435,0.2126563535135934,0.22963613229555796,0.6335571425911606,0.09114248772429828,-0.11461623691567882,0.4296001495254777,-0.0026097917843198896,-0.03104614692936478,-0.06648118295010486,-0.1344433969943811,0.288880964569579
2001-01-17,0.19196903074036778,0.03385806314576673,0.1669379753408082,0.4226736915418125,0.3608691153108868,-0.25961240616301645,-0.5474133600342471,1.756319102464869,0.21400833164459912,0.4436116269379807,0.38929878525312317,-0.15911568733523476,-0.4198475726699563,0.20329738842357717,0.042507989317456765,-1.0800163252855752,0.19628032461598977,0.05444056106924058,0.09428421547770398,0.6664965696926872,0.18331419731656415,0.6245730511469098,0.36503547269757014,-0.10411224882290297,-0.28307969729381827,0.24124364659157052,-0.15753815731687254,0.28960884133342657,0.42322769829353935,-0.1795292904402751,0.298567662997842,0.004322001064773776,0.06208979686047783,0.34026620750364805,-0.026686252375972667,-0.07486470619911255,0.2229722569412701,0.1814179625706488,0.028595496924826283,0.6327966562224284,0.33899899263479866,0.04217624639799086,0.3358646915450488,0.20318684073814652,-0.19765837805504063,-0.02508846108531096,0.1831181021426602,0.17021544574331993,0.3292858617022782,0.39487557441722687,-0.09040289842035838,0.020469264290654453,0.5506774404427207,0.6285652949237153,0.04561349760319403,0.45305155938271374,0.1876964599247591,-0.10798750758773133,-0.11375140007397472,0.20704703847736694,0.18570338662294855,0.0878656535459894,0.19966373026657197,0.15533069176666717,0.015760539088971025,0.11794943162500596,-0.011430981615781112,-0.6422666296020754,-0.5811124995447252,0.23038290514081575,0.8215777495195004,-0.1836787031680213,1.1235523682526014,-0.05828038858291731,-0.08055749644275365,-0.03228695150980677,0.1832570277642305,0.39414558224887425,0.03220916918401837,0.09254750526406788,0.36172676911238416,0.2309164994507975,-0.4583279988365849,0.6436374689060409,-0.11602464225268162,0.6213392418794791,0.35771042416644605,-0.578048304425541,0.6058684690762887,0.6884909007724765,0.33175615224704,0.6060569422928771,0.42886175306868285,-0.05988428313572443,0.013418593949363919,-0.07980747461357415,0.01887170396992657,0.022235010958705205,-0.16798103416265422,-0.5189293515251359
2001-01-18,0.23630544421721314,0.06573130413169777,0.25427356879473756,-0.3243071013263009,1.1785860015042522,-0.04278994854082889,0.4641641089531375,-0.21388777999247563,0.16079605074171863,0.6046774221578006,0.4272899170557251,-0.12395624101960714,-0.2770242694695851,0.32043916217013774,0.08400680309656307,0.8045320634606666,0.308693164640225,-0.1207931216276887,0.32627127892203406,-0.4100159465745249,0.2148421771841534,0.4543561286929702,0.6263549061768333,0.3202653868847652,-0.05689377035225904,0.5943279670353142,-0.12374204734469837,0.12552450458323502,-0.4656282698025145,-0.22954578331237258,0.15205189802497096,0.029034999794931165,0.1359891284498665,0.38439653425630144,0.22780274745340875,0.00724191956502899,0.19691910034576623,-0.04941472550675718,0.16525720999935622,0.22659951333960363,0.4816437576044586,0.06471074064915303,0.14398371118168285,-0.044394968810871266,0.24927536117689397,-0.1109252090259307,0.011812232575961288,-0.05512596309621293,0.19301868264190647,0.0033768991147348068,0.3563317172286523,-0.14316432693485595,0.6311144034170976,0.5281256962572426,0.12544268842598,0.4886270773336265,-0.13488969346063684,-0.35483176256480975,-0.45778311316986897,0.12179679140542887,0.0675007644750984,0.2264701873388783,0.6953954754449005,-0.03759731703462462,0.4937291040843584,-0.03919985608770898,-0.19782088249598853,0.0801512862070234,-0.6850756525436682,0.32572196657808583,-0.03053417037148789,-0.02392973578231573,0.9859833866276141,-0.2358959294511352,-0.1004880954078372,0.002099953363656732,0.06289957685356472,0.5529480835763607,0.11994622933226025,0.17368902573055656,0.12354127757178394,-0.23598255545679073,-0.10661452613757469,0.40774746796743067,-0.252831762384699,0.7046904416307256,0.6666539706569244,0.08049236545483644,-0.04711897117661347,0.487190453646054,0.022649443039369888,0.49725078848109394,-0.10325370743818894,0.21220417022899424,0.5880346304312717,0.0733616000777297,-0.011123271817346238,-0.14272282398726585,0.25722700190700304,-0.3312927758428066
2001-01-19,0.13303277297025198,-0.37757339113272076,0.22707248717446676,0.35195454738967363,0.5753103019497382,0.07471339026267196,-0.08454720698701827,0.47951243663085663,0.2794750220721091,0.8887684251092697,0.5143966173629305,-0.27978704448718866,-0.127453645578086,0.3502259562832869,-0.13846559326653846,-0.16038176319947337,0.22568350618373484,0.09606997960552763,0.32401666542193386,0.20584638205504346,0.2808347408245855,0.6543045508212655,0.6895700662900027,0.3218627424823488,0.25154662027640023,0.27951365189491867,0.006268431139165091,0.35479847199055997,-0.09367889789476129,0.06109903439722362,0.21427207182638316,0.05289363977428382,-0.19613173176798054,0.36152505707280863,0.08803060161521487,-0.2086779748781766,-0.21758984607293794,0.080002524731107,0.008211479159331781,0.12427594911751924,0.32151427982132524,-0.5215778878138964,0.23421821615943123,0.5412944650204365,0.33671135951476744,-0.16750555547600368,0.11564770448344588,-0.29433853216783895,0.0880420554578641,-0.4771204459650188,0.08530254555538795,-0.3401462668983015,0.361384424322111,0.36140225324228403,0.14437481350492573,0.4865269925014285,0.11774800874508046,0.6628872725665513,-0.3543260725537147,0.004846977040510013,0.2546316226264052,0.21849407343317712,0.8851237757732021,-0.3572363212307697,0.19871855637346664,-0.3324904926567724,-0.20720701213601322,0.5824467477973545,-0.1674371326531031,0.3723161035585393,-0.005521214217647532,-0.593849097590633,0.9000333394622825,-0.4542357832769795,-0.2506785410551582,0.14211887883919372,0.003923818765215661,0.46897683671566553,0.040238540956154534,0.16319321598054565,0.32464277914767087,-0.06917267014913618,0.26208355622723173,0.2655073745341568,-0.08986415798894999,0.4919586223312755,0.25409262116348585,0.3363050113477821,-0.041914916629411346,-0.14434125120750377,-0.2204676624602886,0.2615706329652455,-0.21271574015165876,-0.06749034962996137,0.12385659970719978,-0.03365260235923307,0.2594724095806504,0.0015224040771679567,0.31409220177346703,-0.3294089665944388
2001-01-22,0.10468194278131769,-0.3708015935069742,0.05635814235725873,0.2653762099833205,0.19867863564119487,0.12629800127828059,0.07418328196231548,-0.6547201376826933,0.10588858247090288,0.725971196591562,0.4330151602227697,-0.49626205264825046,-0.09784284672358254,0.4071040447178361,-0.21952516712878684,0.7932480301654843,0.36020354505780167,0.06667993239694207,-0.394417344350509,0.41632562516931987,-0.0955914097538544,0.4261146962950369,0.2081155746669943,0.27704228350240595,0.4381970458887152,-0.004412016990264502,0.1096912877440722,0.15975852962392267,0.5768254145967722,0.07924181895177958,0.10115628686687046,0.05491893787168309,0.04797690476663749,0.39360709360369645,0.05903052304363569,-0.09360063935723217,-0.044824575599878645,0.07575646201436835,0.09082187096513716,-0.4507837835380977,0.27942437203501913,-0.4671692307358189,0.19723038976632654,0.5544091527081563,0.06474939450371617,-0.06849510594204247,0.47775384864193976,-0.4058557824352515,0.1693754357294882,-0.0492896118757175,-0.17245740184460812,-0.0579237056067186,0.14628573464010045,0.027024733635702992,0.10542293051268685,0.09999997711805887,0.11413823736832128,0.7497320982324825,-0.5458922689827382,0.03384326210027785,0.24470188446574362,0.15427358478407638,1.0183932828033395,-0.5946751335963968,0.07271133867287552,-0.09758505439305312,-0.2427560738071933,0.13063636942335755,0.7184545698208014,0.34819075541741923,-0.36821018095089314,-0.6106849398365798,0.7280759109760169,-0.20595032123719134,-0.01716883011768526,0.34189208632053525,0.1427007734882749,0.3417511331228489,-0.02302734862263245,0.19015458662353837,0.15891694879352092,-0.38969962918717105,0.3866132926159478,0.1840858160905125,0.0653627318120287,0.43834281665415514,-0.03882946516206335,0.5232842441107515,0.2653965059571817,0.04348775169298892,0.017662486477955066,0.03299673119018022,0.029450889034958135,-0.10485055615135135,0.012660144338724236,0.16603603929131452,0.1847109092821838,-0.032811373539103676,0.2359224496428446,-0.26647429834007647
2001-01-23,0.1524083933439333,-0.5497760902897127,0.0694679653792164,0.025564676702165355,0.2625829589834889,-0.06858357802715531,-0.23752786092145925,0.10526499797882373,0.2689681813130948,0.32333843034360177,-0.1042130502049773,-0.5908296857966204,0.05814117356789601,0.6016066425040281,0.13474381588565995,0.12943288170476341,0.1513670922660391,0.2853632048327123,-0.3327900527563632,0.6639146366194466,-0.414031045728902,0.19271478353962504,0.07238346772775898,0.38896778388716435,0.5874713366348523,0.1885469280506005,0.22959862883636734,0.11596300246600735,0.7801968964522384,0.30647814480679203,0.37970924185297533,0.05480108775090512,0.028042074253849768,0.30860017204827656,0.14658673159357427,0.2448107728463047,0.0571227813802407,0.07356036650777946,0.2605900452023391,0.5029233029387015,0.32628059886974103,-0.22538351902006426,0.25007217522338915,0.22416459635540867,-0.00018481569802734603,0.1173635358491513,0.8026104055744905,-0.23611967422136476,0.11708811356565164,-0.10766633069393365,0.24394821470804762,0.119380946808683,0.34440946903230046,0.26392866165573653,0.1385290324701138,0.12949785714861234,0.1835526453290502,0.5214528502469545,0.036728215378249406,0.11860521619204085,0.32092625201120734,0.06815422279788112,0.41074255097101364,0.1598477923747133,0.5685557348980641,-0.600536354516463,-0.005085395250340799,0.08410666444665323,0.11940386245404241,0.3424275896914748,-0.11594411978319158,-0.08702890540351685,0.027156043901621178,0.04920861714031772,-0.23127639244908063,0.13524419390990433,0.19281106141690768,0.3677721051223582,0.036266037563254507,0.04322587826313223,-0.28223313466337163,-0.22652808870046684,0.3370274182591643,-0.015758860160341472,-0.08799372357479629,-0.0555439033389859,0.23833609294779398,0.7582375452871094,-0.16875127671310605,-0.2285960948196395,-0.04294028006629417,0.0765326980851497,-0.19044769306602388,-0.0888027343691211,0.23221274834546018,0.0683706776989917,0.23807698452416534,-0.08897097184194767,0.06739207582088312,-0.15379114051016224
2001-01-24,0.18337793561480295,-0.27165974247805275,0.15845229589205695,0.2390786759671072,0.49432653088302897,0.08617283032756928,-0.47144471620071665,-0.07046615128725679,0.013487363185868621,0.0184414605364364,0.20755718977754117,-0.6276170500130851,0.19768195792684923,0.37762611678655694,0.12312855209345147,0.21922379012079302,0.33006701427692997,0.09210963263220412,0.17573653629783328,0.363682113355362,0.19220943613035493,0.14760352376939523,0.020236984428835692,0.503778531516025,0.31978124934821633,0.39793522030404965,0.07928265300770532,0.09154563832632875,0.15375210225295236,0.25166911964678157,0.24024244867753872,0.08534302768089103,-0.03905671978576614,0.2553639348401515,0.03138789374147351,0.25056005153269606,0.0055232364505162015,0.08782104283155992,0.039714239219532155,-0.03547609452559838,0.40948761559088004,-0.07677011512263422,0.48894797772113563,0.23376086221342426,0.44587406794968404,0.06333247999925135,0.08241249732211715,-0.47421108448252686,0.07417904257860727,-0.09196441539221903,0.026816764185360466,0.03670155130224239,0.3081050877068979,-0.08527434194257277,0.1423284473555989,0.011580493253011437,0.2555542541389619,0.6539099408467571,0.01056673883864678,-0.21865050576162745,0.3730449099191829,0.11424496510909896,0.8695599566508286,0.43021997238651394,0.2709375386577402,-0.18755695707807593,-0.12349118578227179,0.6344495749951503,-0.26840913939897865,0.24328286945733985,-0.8114830474787751,-0.06244026633386181,0.5321424534099455,-0.08293784345198268,-0.324142721667131,0.12640196172350296,-0.18935847607156928,0.45772250511618057,-0.030569306282039646,0.008841853251790661,-0.03943288728125822,-0.06728047260572155,0.16626126638579436,0.03587003262220614,0.1761318063844326,0.07777574988815161,-0.06880753115749536,0.136839586636339,0.12055481671028555,-0.06891966833708708,-0.10065399495120848,0.2860989588112622,0.2201512617992144,-0.0401015940235189,-0.015259226460653875,0.18527089492537485,0.19531517716122,0.18239235849156446,0.357017770688077,0.4472058286221506
2001-01-25,0.04006360952780932,-0.09852284877764389,-0.02846483765865737,0.22672429223696147,0.4572374603563097,0.1586571371004883,0.11126120182417988,0.28935507100974983,-0.130869159377615,-0.3355198750069584,0.06268361728658764,-0.33296989484049494,0.16082030969416616,0.46294141487095775,0.011802332188157239,-0.07237398875313862,0.017554501895683843,-0.0695409516316257,0.29534344622591957,0.3507829129691205,-0.5617766610629658,-0.5646007668080535,0.35553400760390447,0.32374537745427,0.24220527808422135,-0.434846240905069,0.027140511345527023,0.14326504867619988,0.27899003318347415,0.2478002506525331,0.4013370421087796,0.07181964736510775,0.18817024094297916,0.08370172760405803,0.055728233338498766,0.3312204422872403,0.09542597219287893,0.0011557747883789743,0.29221413438848104,0.3710926623046656,0.3064627727922243,-0.21165297993692642,0.46800915202512855,0.13734657656129073,0.13989073426941262,0.17702509680448983,0.7031917363600668,0.04987020116158849,0.030386245221425905,0.23253283852722512,0.03009868464744627,0.15637709450140874,0.1303830886389171,0.23615731426799208,0.14380476839526254,0.3525805945135255,0.09146591704492692,0.35330770711501314,-0.09837078201944814,0.09613020913855304,0.17585964225997852,0.19397258417098312,0.020909644973137586,0.521158585781473,0.3522294172768876,-0.2964874882415127,0.12797638427115682,0.3337238419508223,0.17409168287352,0.05793090474335605,-0.4450336969825093,0.37141098046346166,0.576501815998142,-0.019567054134740514,-0.25126990713249403,0.10260720020966929,-0.04910157420998541,0.1705030831696225,-0.006562885208022179,0.10907477941794905,0.13396600703309386,0.0072762033753743655,-0.061660961988833564,-0.022163229568127336,-0.005909977488250171,0.29499294309703994,0.20271266625230117,-0.01650398975745574,0.1910513988599501,0.06410049961618819,-0.04744773640415015,-0.22322982101807046,0.1438273017057564,-0.07362384438514387,0.19039995024695622,0.3635354361507336,0.14260749558332284,-0.24617632216852808,0.2090991134067472,-0.1843974096464185
2001-01-26,-0.05227854184393129,-0.06823940821680247,-0.009571975470717762,0.201680467836856,0.5996429888098141,0.02484648327615899,-0.2561140742138502,0.6454589298663265,0.09881773180181438,0.7656697219953709,-0.05939185285096185,-0.39791524128108025,-0.07596274798617544,0.15844279570694178,0.1616193229238237,-0.6333116447387342,-0.30980473716018153,-0.36676881581476084,-0.07105977436708515,-0.558814689323771,-0.06720930629319244,-0.021594850360940804,0.6792944940462837,0.21763811192068125,0.7099743499443593,-0.2040338915540559,0.07161643508925962,0.18541136456458904,-0.37643542160572324,0.32409462386701987,0.8422961405917876,0.050890466814895646,-0.010162567673100633,-0.044473322182346606,0.22201246505460767,-0.051538666824369785,0.05323556944676319,-0.039007082656595575,0.192897198062069,0.12421071050169546,0.45833145492924704,-0.1779448597141958,0.7823102630415896,0.25509268823852216,0.19817756025092817,0.2668133314228614,0.9216514847655365,-0.05645812651229234,-0.09767725881644204,0.3004479938120193,0.12266160100440793,0.19681253634390924,0.0703186168449387,0.3740924798460239,0.17846799657019508,-0.08266860240664299,0.20179884780721857,0.3732269045933655,0.38440583981640847,-0.0019765935402689247,0.15917708861408703,0.24477367528885569,0.26616258147836347,0.5759059563751852,0.4379799220674486,-0.05123041769896134,0.2991815431283362,0.5393682404625575,-0.014179141871511461,-0.10089132528444983,-0.20468103636810644,-0.5228549288706936,0.6730147075112747,-0.34579488931780805,-0.46244806382939363,0.1553138641606594,-0.18145416545224846,-0.011835659080498556,0.039898507130578825,-0.02280191500152286,-0.30184635328212905,0.013420017493772272,-0.09909698714348932,0.41987961990114536,0.14709117698076685,0.7241420216602379,0.12753347907980722,-0.5618292762192221,0.016545512541873707,0.4727182753520905,-0.08750504580526772,-0.39664565459399226,0.45313974187716244,-0.3550006440234427,0.08808441397438056,0.32831093929593835,0.19836231506190524,0.15633505486548424,0.044480165362350374,0.13843131399165542
2001-01-29,0.08154680223906768,-0.1257235263866151,0.12101363655402521,-0.19781724119064453,0.3510889602022542,0.07678685741063143,-0.0777099803002346,0.5048559174857786,-0.013557543747869136,0.370700617382856,0.2634047272109679,-0.06977687944262266,-0.008136187447773799,0.04227098987094863,0.12748314497923294,-0.46955639807651345,0.02663184777137845,-0.05771499655077498,-0.07309949663998823,-0.24297821152226945,-0.22584841867742939,-0.17810232763810915,0.6213982772898238,0.051471889148856746,0.4157782918894527,0.27066716801545987,0.06968968420419913,0.1321336086622608,0.02663048220979359,0.2721354520315237,0.5791543258765307,0.024785046671257138,0.011373594504727129,-0.11003586761771157,0.2232705902716635,0.1554511704805828,-0.029065565267664007,0.08655369784115055,0.339177873500143,0.07525429708062996,0.2985032327925923,-0.3277473062224403,0.768832773479875,0.3513570678583795,0.0010215493040236201,0.09845529254036836,0.44119325913506846,0.17702632196534335,-0.11705182058901271,0.2190621251700398,0.21041108775592052,0.15551131006047292,0.008498048594998395,-0.17954316307352075,0.1017997993608598,0.19076966790812616,0.056559109115673335,0.2586808121831881,0.06650692901133554,-0.02103316285616364,-0.19368792154919287,-0.0009174474447019618,-0.11478636019692853,0.4225311003381362,0.3963449007685681,0.01990692674058228,0.05420073703213936,0.8278562758848963,0.10235962466703583,0.05930176002582594,0.06114326525181692,-0.534669859975241,0.7074206766253621,-0.26899876966396535,-0.08579135558861635,0.038350609832690105,-0.09769855144890154,0.2031701948896495,0.021662542845709797,0.12495136124951725,-0.14403325603902248,-0.35702243156038005,0.44106002652245957,0.2929344192969905,0.16225125032934867,-0.14485893632429048,0.26336177420023427,0.21301692745702908,-0.021988128393356857,0.32718975778071757,0.011200072137099499,-0.1477409916445899,0.03621304637794168,0.10434632639635896,0.1580282824397326,0.20353746499550485,0.013501538704883286,0.033239531364962716,0.0983539573779394,-0.12745878354982199
2001-01-30,0.10864558896357614,-0.10030531934113128,0.032743934077747706,0.058759507537997,0.32664300208004576,0.027050140938611054,-0.14229337990148483,1.6818801099174274,0.06105921705061015,0.03699149984965378,0.29278370398941866,-0.26534567579945406,0.05435266561157051,-0.001594561305690806,-0.0852179345745345,-1.470480988922435,0.27014618356281667,0.012769190376054432,0.28894357314668306,-0.03331724595895973,0.09825980491229919,0.2282976251993684,0.6835376976581907,0.04561674426650861,0.37227155691798786,-0.2750997640511742,0.0818295546401672,0.25227948254326954,-0.14779337601848952,0.312661525323846,0.3448484375097282,0.12256671320666584,-0.20445139174403357,-0.016385456632956284,-0.007380531840027438,0.06826924014359345,-0.05946008561145075,0.16829809147210428,-0.010931656365750202,0.43178903877520375,0.18371619252441382,-0.2970666771302131,0.2656537908789042,0.24502380573963017,0.024204341322648346,-0.15246966624419714,0.3897340888289041,0.0666226982150001,-0.08219854087882124,-0.25142691755083724,0.28949712669393546,-0.06372582182159692,0.13337860811246874,-0.1711406412395661,0.15359687316632958,0.27537032377341525,-0.14976263926944575,0.1671269327051147,0.14255258367055243,-0.028492583329507597,0.02045416459273257,0.023085275626545967,0.22248217994884997,0.17430007322947544,0.08232491512476095,-0.05579322915737898,0.19649758905070042,0.7231553898345955,-0.0939048716112094,0.13347950825189495,-0.1698911853224047,0.5634729069147888,0.36065421539402714,-0.17138040568809312,-0.11639634130820763,-0.09768984971276377,-0.0225397432203734,0.09723691531050671,0.030744418920120007,0.20619986007734598,0.10061071815971534,-0.45183041636171234,0.42180751463681104,0.11710869733697021,0.11098523921449294,0.0200974243041503,0.11765030550772623,0.28451202199797404,-0.16766821385746397,0.07794561323155338,-0.11894113596427477,-0.10444606586081842,-0.04765551386157131,0.05966726538050259,0.11282457209565085,0.15555303888939653,0.06706838703061752,0.05485372192241312,0.3957232433873529,-0.45920774553810917
2001-01-31,0.12630356450541705,-0.21851456358966023,0.17673832874644388,0.1188720449622875,0.6566140905776673,-0.0034108008470190494,-0.1863507538141753,0.3493871204593076,0.047179607086170805,-0.45510371059216587,0.26560429742219027,0.05409622634055075,-0.05771195491678081,0.16494553044694052,-0.03972749741131214,-0.2519751545790982,0.3797977294997056,0.34789363816093677,0.2146403758956199,0.7838178286751741,0.3018390834058879,-0.009004608207410555,0.36923627879793763,-0.20706101981281463,0.3609314323663509,0.07269927629474228,0.11694796638643586,0.14846379575306992,-0.1320993032775793,0.29131395101682933,0.6469502850823381,0.12661779355258967,-0.19098026142115765,-0.10137182778621269,0.0930150140145249,-0.10936092629507092,-0.11937171717592343,0.24082033505494582,0.21911554557473367,-0.04780508130127266,0.29130340041850256,-0.12579183257299711,0.12697751794725703,0.2263812595286396,0.16439298999835808,-0.01471322980710891,0.1757679334187845,0.07690688616272338,-0.01724885837253512,-0.3123325562894449,0.21254743348342803,-0.15778685390375682,-0.08672679730101955,-0.2602682460353868,0.16201045430756467,0.13563625891027686,0.2755492349307912,-0.043681044679568536,0.07378182747322451,-0.08295287998303955,-0.04256154688283838,0.06782870179934834,0.30659244992787377,0.18192498871645624,0.16022052207307846,0.18299342904331792,0.19731988007820314,0.6304096425119412,-0.07876118622131133,0.17400966388916095,0.25428460243077483,0.17976564157639854,0.031073177385758675,-0.03695448673523496,-0.08778424340988944,-0.04547608915289191,0.018654575364692883,0.27547731596265757,-0.02977401060029009,0.0764026413446419,-0.08648872792916494,-0.15444542307580894,0.18148306529777372,-0.12246540576464113,0.0015827309435737184,-0.05572636436470954,0.19957834398623742,0.4219940956386337,-0.32746286221308607,-0.004343227167876953,-0.10729355011657872,0.24166970083968764,0.012416354980098923,0.05550519450856651,0.13818293866912607,0.10377068270293956,0.23130746608974045,0.29014627026123363,0.16873991522894452,-0.1369638469473875
2001-02-01,0.14963606446353353,0.11205524311593576,0.1797323380654381,-0.2250329579875534,0.5843308075025238,-0.11592214798566945,-0.3103120341040285,1.4669187190694422,0.011829659673734885,-0.15639629121785342,0.03336429478251501,0.00791402575096503,-0.07415987880907561,-0.134786923901415,0.26155228951318327,-1.1833059921666793,0.24698219435398558,0.3923626011288494,0.03767170650204019,0.5242824816707231,0.14225284778561656,0.057162335920320245,0.3515653520434256,-0.004779674922107662,0.2640197909168732,0.4371003332691548,0.06371211842786956,0.3347984922054427,-0.4005077141573773,0.37392460603048255,0.641041333541129,-0.015014214862662056,-0.32676919232020385,-0.02929920747666405,0.1674892582967268,-0.22012571562846456,-0.04323614712963593,-0.0654003770983832,0.17442276876984522,0.2631240369036365,0.2978562920881443,0.08389842362194182,0.6016529306767835,0.15925458188844985,0.04118744609388573,-0.16310308458919004,0.34965979280003323,0.09718159129634783,-0.05001261045998663,-0.26544317630929337,0.037796618121071025,-0.11453726117124895,0.13271477426761774,0.08027940027509357,0.1426738960766974,0.11396084214212733,-0.13326356866586409,0.24809799164793533,0.13545960380055708,-0.123476895193604,0.2981516265501795,0.07818444786580857,0.19958078401335647,0.5113626167996034,0.3081387981577414,0.3126334990727876,0.1652082240512394,0.23962080709011038,-0.42884869534465725,0.08765093846816868,0.03325879762917432,-0.37042864777313556,0.2546900858266942,-0.4252198885859053,-0.16871818092250157,0.054200410193327546,0.04641338109180115,0.18943474540625607,0.05927576164467715,0.020974372444140944,0.39242642621174895,-0.04884242475111592,-0.1740682654615068,0.17571733195359468,0.013959333102952108,-0.28676010244800093,0.037769305001327275,0.17169905659677728,-0.23862872828410442,0.1175677651593873,-0.04098394218050316,0.32693491114295753,0.09823158236186194,0.17487157090479094,0.18898749510120674,0.13792857437168943,0.2931062396080065,0.30470503467361215,0.21111356375991985,-0.04702419215966268
2001-02-02,0.1671604836120326,0.11817669905014372,0.24418155610546377,-0.3632499963180472,0.44991115993863867,0.04990940717845869,0.21963257921294593,-0.253184953850439,0.07377847022287125,0.2420702495416672,0.2805393734317141,0.2044052855684815,-0.04354131001605216,0.1226490238975362,0.27593469784196556,0.33558236298757743,0.22909240422938096,0.18052212783363625,-0.1724360301314174,0.22684571749891552,0.2573510288968115,0.06800864842876364,-0.06416935520614644,0.24946453632318302,0.573260512434873,1.3509654093985917,0.2629998361213624,0.042803384263671224,-0.3334422450857588,0.2021399705471845,0.7255465152162993,0.07336115872864019,-0.03556135662062623,-0.043446880550177626,0.26244124757708165,-0.19724360804194463,-0.07895921813335798,-0.06583931311395404,0.31260698105458923,0.02969521742679192,0.2681642990744153,0.04076831959280541,0.8234422991673821,0.5329412271020529,-0.08200658256379004,-0.14545971641384886,0.0959184523356182,0.16554717298328717,-0.10822346227686648,-0.26355654284595864,0.032367050265260947,-0.08632897494321815,-0.05425081784490498,-0.27920356105133237,0.1286222874819592,-0.3060398338650641,0.11445220551405366,-0.01926042012017622,0.1957023962675359,-0.2749399210028255,0.1760098035379058,-0.09487859840934726,0.3627029285554688,0.565537792762619,0.31909046262885893,0.32379618794565496,0.09363647879868017,0.5743684682645255,-0.5093576236798603,0.1499917550849426,0.3693533730731676,-0.5282584577179588,-0.40484971372729844,-0.27801298553735143,0.19088645172309288,0.008493041361415724,-0.2053927778325552,0.16717387093153813,0.09381238574297553,-0.0936752868131131,0.3087731687409931,0.16804522550395234,-0.1783433856644588,-0.009936262645468194,0.31626389474633904,-0.300131389561775,0.1437904201946949,0.04380591458189446,-0.3218752753883058,0.28248942556143747,-0.11857101760524981,0.3516900393210707,0.10527750120300183,0.04410708882493512,0.07103333982787337,0.27701588399638266,0.09502753558598223,0.2980209147416437,0.10252799346801912,0.43625392665914914
2001-02-05,0.06272597164476798,-0.10064865589149949,0.3689430733894876,-0.4513937966901114,0.6887064834725486,0.05746051884392228,-0.14121806394125527,-0.5757592152998882,0.12064977413465025,0.5595338279637092,-0.07543904508506222,-0.47805759178673296,-0.18808578037466384,-0.2698267406951385,1.006684901384688,0.3757501299077831,0.20569001391542283,0.7666447952199984,-0.005170096682417294,-0.019611636067703903,0.17096374551764063,0.04841454738875797,0.6225154290963539,-0.22279670998341541,0.6868388757960219,1.1880453602133025,0.40267163661738525,0.37189132993952356,-0.035866173862850945,0.2087501904561723,0.6136826877383402,0.03432632308581772,-0.4606287046258644,-0.006146190488527709,0.2514226700912254,-0.45008521919428995,-0.17959832097678807,0.08401806320882237,0.15019564813628358,0.41678780221745465,-0.048634726582571196,0.06074287804710977,0.7032548119986665,0.4857639125466833,-0.12963315974869707,-0.21113383375206632,0.3431049239295573,0.4585536727565751,-0.07939641839781406,-0.3511218866527497,-0.12338784837070967,0.013367496974541222,0.3282838826623445,0.2917024431681471,-0.02506661413276782,-0.3129032274133269,0.1635861023904086,0.35470659859901593,0.23211839505576853,-0.4370308372819443,0.5193850524869476,0.035389751025166366,0.31426590351575967,0.24147881490726023,0.29556192096716893,0.11978765530117703,-0.18536680062990127,1.2250283531648984,-0.4114415051102588,0.08740311258161795,0.7007067781694954,-1.5551901681340865,0.6531115957134479,-0.6399058438867109,-0.03545370412979969,0.2073339500455076,0.0004902324211106111,0.56318143269749,0.034131994588805045,-0.17504048706271794,0.573742371716815,0.44899885808849993,-0.01917785083003777,0.3455548998082117,0.536410623888816,0.33080601954368244,0.057329186695067265,-0.018803678823903876,-0.1773501091215506,0.14411277005791534,0.008323597082824886,0.16767510208752115,-0.26457138249736567,-0.12411864407130623,-0.037195485667571256,0.12331176200565946,0.7193037268969802,0.45313569909557366,-0.08757080559333745,-0.08546310869574682
2001-02-06,0.12186014735687276,-0.10944212830900324,0.3229230079310514,0.037481153436601966,0.9254985956516226,0.1726399515501362,-0.04126701178874193,-0.328151516969183,-0.024803945068190027,-0.5235522006596872,0.1521089088293236,-0.40309914862768054,0.2821028633283613,0.009123530121765273,0.7213734300029034,0.6480580641747709,0.1895429389508244,0.7111756253511122,0.046736223953280254,-0.40223079433803405,-0.32660671464271634,-0.3066903608760694,0.8391803946534904,-0.17491435891815532,0.2777736332108645,0.5300821075523606,0.11434377658518088,0.25517257186393905,0.10585155888097458,0.40389458910146325,0.2611923133006657,0.14034057882679124,-0.08945733710875127,0.18971558747864292,0.20096504649999822,0.18259439624904944,-0.10532203639807543,0.07262824304650363,0.23426617389676738,-0.11102935950562098,0.33284257235211845,-0.1280083220276789,0.7197960014241392,0.3061744966213361,0.28977633954129506,-0.08814595166484164,0.05563000525245991,0.313751296840999,-0.10201545934161198,0.17145661826099373,-0.07360115458706289,0.2956542093146856,0.3526992515041716,0.16742780584809053,-0.13423734978104315,0.07531346050593192,0.28851733329901263,0.8843523758657696,-0.02902697916769661,-0.12984708950285948,0.3028569727414234,0.1484844073282434,-0.14151646032616993,-0.015754765011242733,0.10200498350543825,-0.3243234857933769,-0.2257705175234102,2.048465156880615,0.24252361233450137,0.13987578499942865,-0.6092616380909208,0.057727643988336914,0.3559161400795693,0.015868148998712774,0.011119418490230055,0.24384023501296703,-0.030332807059367032,0.40543640269410297,0.01030598661621875,0.034599727595001135,0.14333677544837864,0.22009667965182877,-0.003241065809399443,-0.05608026747136275,0.04418561317673099,0.20316116856227384,0.2791261781496654,0.20363201516228305,0.009612432167536046,-0.06987353629027764,-0.04107937284296883,0.28403137266368034,0.10487483954084985,0.3442330386389568,-0.10180846967518346,0.2353854269145102,0.33245410250931984,0.13754819180377004,0.0004118077483090946,-0.2680283678889065
2001-02-07,0.03683479691104201,0.23582809566597043,0.2759183808654252,-0.25258813083794895,1.2759747991831394,0.3016937466313274,0.004681013600725103,0.27812310523139183,-0.02857385189139679,0.8520409333103764,0.16656484586482392,-0.36378304436110953,-0.204329848569436,0.006671032169878769,0.4032951990163243,0.05978006633141688,0.2343042373856528,0.4369791197885367,-0.5181517403859037,-0.8571373803855293,0.25480270962105833,0.26175486755675087,0.2953736791942301,-0.020497609737444616,0.4941597552838016,0.5832181580188712,0.08729343668680759,0.34576416768404117,-0.5472308055106345,0.33851356849614667,0.11630068480095851,0.11296180799153815,-0.2601813623519535,0.12269344636022252,-0.08819294165316949,-0.2523474972188425,-0.11016217278662206,-0.3767252736117875,0.25073617924964897,-0.10053060005553538,0.3115757150690068,0.08979280785204469,0.1875972914644578,0.6617307693662866,0.06177939817023443,-0.17158057572790003,-0.054916240356854704,-0.26734297395943885,0.009755124841129174,0.2584553692967463,-0.27478568962766065,0.3310181158884551,0.1911459309905073,0.2360982354245654,0.03179836201433659,0.14897982469648136,0.44251284779420086,0.2886770623102152,-0.20966386925815933,-0.2027168527940834,0.43846253692481163,-0.021485890340873167,0.16378874487525721,0.37054157969312296,0.23161325756287443,-0.10232999195542293,-0.010906192349091712,1.1072123082324303,0.22276169449242417,-0.02219784726694067,0.0478634829227024,-0.38573687652696204,0.365939307389595,-0.09863573896168809,-0.10262525966421658,0.35197487915441644,-0.371321785027497,0.5263571482490778,-0.15621080010099375,0.03293108962277462,0.45737240650221855,0.5139453718242721,0.23114577399506436,-0.10508182440508525,0.26479406254769505,-0.19322910677391697,-0.015087843081929286,0.5012204132033585,0.07660287049484771,0.15894690627655617,0.01288910505820617,0.8519981275986287,0.14811141870754457,0.3281028496622976,0.03915274090287534,0.30745856394766075,0.35312723709129334,0.12357658792827686,0.4546995033751336,-0.4683515671787153
2001-02-08,0.21853206826283905,-0.058705324035569155,0.2127759799721777,0.07285590922407591,0.371983254646314,0.10964123952262772,0.29396893764059234,0.5282280679382924,0.11614303181086517,0.3130499393797063,0.16768811408072237,-0.5926710272224261,-0.13943128223193138,-0.08598582645102376,0.5595176531125163,-0.3946013403089807,0.5155925188684498,0.2749297578591038,0.46479702310617194,-0.3589878430041347,0.6133015478502576,0.5355916829973048,0.8696442780822168,-0.14435029422696605,0.3779675134417279,0.2571516528726249,0.039100862247907334,0.4400538185385194,-0.44513262090274086,0.3902862951047314,0.14923062754540467,0.24134091744912603,-0.2738444544210311,-0.019892513207962356,-0.09914124607152298,-0.013334493278043832,-0.19875098866938687,0.09132014704726736,-0.022328442587870367,-0.262605160306537,0.26055769606328977,-0.31405141654826413,0.03265065321390635,-0.40892780960853725,0.009881270968277255,0.10470564165291607,0.10334405705313666,-0.21247185984996073,0.01555780714195242,-0.12799784219823032,-0.03883821669014211,0.4663159434250337,0.23687087445097577,-0.19361848976381424,0.002923456944296379,0.2325727988125209,0.44732648579707157,0.6693873818464788,-0.2043427992279454,-0.05408828682100929,0.08079839570827968,0.10333010672032716,0.4072376343094856,-0.641061339268111,0.33769538934279403,-0.0718497833821997,0.212037199863111,0.7457840507704974,-0.21938284625104576,-0.07051775532467744,1.198705951603413,0.15236303808517299,0.18681484108457724,0.10520974159531071,-0.009616791325033156,0.30164307136593754,0.02105791339929982,0.4567323151290603,-0.18555310171824776,0.41142341919495656,0.40461524850907143,0.1375251965938474,0.9061856691427859,-0.3283631859275056,0.3521359358788898,0.5587639627120702,-0.0718868612179323,0.47424534931306567,-0.1386477060764671,-0.20889089035864336,-0.10196813967970715,0.9368420747796303,0.15796365063474552,0.31908671150267587,0.3140072033242649,0.16762940731859766,0.08847076523076962,0.49737359320031527,0.24159673738275125,-1.1337857407740244
2001-02-09,0.21237763046497762,0.03754991175003434,0.27673127094617994,-0.31676268096729643,0.49358711275972034,0.4685420771682178,0.6818545329018483,-0.3382350343295927,0.16367225516711137,0.8951208199732238,0.13214061968981688,-0.1760394608730236,-0.19774041144423596,-0.10452648192949704,0.5537972367494503,0.2891673466210629,0.26340804863271716,0.1245723957471904,-0.11482072457944693,-0.20820782713379113,0.688628348717102,0.3151161251305118,0.9169845483023858,0.31624810998526176,0.499126167587501,0.5168105178811713,0.4947812386767552,0.40298096506683545,-0.32700649102149937,0.49896214047214604,0.3396103266219834,0.1760910130940994,-0.2925089032680969,-0.18945259381338267,-0.04115049870685164,-0.28204992803486795,-0.2249461349921602,0.306838622525939,0.17899341779715608,0.2990681072345222,-0.045923153801250435,-0.16911951572156328,0.5089547056559115,0.05063176530267046,-0.11593808441262304,0.006528955574532647,0.07306376988043566,-0.021910400763409738,-0.0541684816380949,-0.25386094101495826,0.16064261548859185,0.152630165706723,0.1873437054799824,-0.16062874592274592,0.03701459868954094,0.7555636084787855,0.15071031184019779,0.6340789605925218,-0.3475165495452641,-0.031061556000723942,0.037667983311485194,0.2665861421933043,0.06372275482558196,-1.3812586299346543,0.3325357976461502,0.05267241655647143,0.3595884035839984,0.4222007635648039,0.30734960503598746,-0.024165518258804752,0.9423460539421454,-0.9596735495732981,-0.14703475470073765,-0.2573082634280824,0.23440637475946347,0.41230231068632883,0.3938248583156527,0.06420249521855192,-0.17373316398326877,0.228652577881234,0.4259546432364848,0.06416410111042122,0.8375650289536392,0.13590274462894708,0.2903044108317208,-0.11134093362689589,-0.09791293847867691,0.6792351431688347,-0.432076374639925,-0.2948339538078515,-0.07356118623747579,0.27710515702581945,-0.4563794640033363,-0.3041195090701924,0.42294860501586473,0.13660543411204104,0.3060414539111984,0.20076447989632862,0.40803161001619415,-0.06314799222098645
2001-02-12,0.28301251924159804,0.19217066804194574,0.3487746158305421,-0.2221842374549085,0.5033976951038711,0.594792137290146,0.626390580430965,-0.23099885793255998,0.017171751939910124,0.43833430330815043,0.637765712444132,0.3739612115807245,-0.10314391229026298,-0.06153439423654384,0.3834602977850182,0.3736688893197494,0.5384035615957402,0.18336284897715172,-0.09003160926495363,-0.3942932000381744,0.007552033392447664,-0.010369829738295398,0.40666258855864823,0.07430702685906251,0.7246214381684583,1.2383829976232885,0.6796265857911218,0.0926829191097622,-0.7804452343581056,0.5312445947426139,0.6366797935102143,0.17031609531696268,-0.3439514419243538,-0.042986530211555095,-0.07332956667946568,-0.08806009631048509,-0.1600444701841458,0.14349653085129377,0.10993818707775788,0.3161363773530701,-0.02487084346522167,-0.13394140381565983,0.4850085435836686,0.43423723476662424,-0.284417108459743,-0.1836193878822787,-0.3021297772952032,-0.4735099195999084,0.044093252065680676,-0.09390416212784813,0.44606156884301257,-0.020429714767007032,-0.027462909858640305,-0.5334613414614856,-0.042527126521628884,0.4394649322874664,-0.361640758250099,0.5000080774460405,-0.6184134707176069,-0.3668464972928789,0.05811875990881238,0.0009522732989217126,0.9600503671921731,0.3092741940731836,0.3856545608628117,0.11464586650685558,-0.06225357920277489,0.5413448717485024,-0.9186089039827867,0.22965890095142383,-0.056942129273651075,-0.8630266796639946,0.3429550107756758,-0.22274400670748312,0.45369962058646357,0.449093124322334,0.36406301892777243,0.09630119077640369,-0.12234862716330731,0.07484795928464433,0.744449922459269,0.16432910784330915,0.47727402811731356,-0.003145415349420996,0.27479493319869486,-0.14618337310715787,-0.19160796993598292,0.42015977237354313,-0.6161767930892549,0.27425354550417985,0.009269990947095946,0.3629166865630019,-0.4406159010758711,-0.5024832625112264,0.27963839185107603,0.013275148403571796,-0.09408199081752766,0.4369390201021888,0.24116410358617604,-0.09662364976600997
2001-02-13,0.25528966632452127,0.1383286750271206,0.24118970243483417,0.48624905685929154,-0.621465989022699,0.18816573054443833,0.18262603591304952,-2.203007783081857,0.3547771188741688,0.6402581066716188,0.6090892530729688,0.689450961629,-0.18355489835037636,-0.09452474071774122,0.09379496312699184,1.9996108062467497,0.5915766321792345,0.0651930367345818,1.41327666382347,-0.007081839137460829,0.546874017866311,-0.2960897391826367,0.5885509881498142,-0.1184609607561295,0.07299910758622115,0.5490622418608794,0.42824369966093606,0.08094464814324565,-0.46293138517445714,-0.02042770832729046,0.37073224898501256,0.38658147287754474,0.030685048814906402,0.29885932827166345,0.09021450715604848,0.21081796562337632,-0.22444342307134366,0.4274646355946327,0.4161581608032718,0.33851812496705586,0.048450091603078095,0.1893736103779776,-0.3099780269882541,0.643703861848218,0.3410479698581565,-0.12638951494699427,0.404825612611897,-0.2716894127029787,-0.01744267894567494,-0.19534154305686227,0.3825043817103515,-0.2436694516266459,-0.052845190003191524,-0.07711133546240057,0.14102864681117808,0.5448373900864228,0.04930410052387838,0.31843700499878785,-0.4602984625120149,-0.14854564253440591,0.22930662192156753,0.08698399865881447,0.3308630717819263,0.6498576483701427,0.1372601066261878,0.42862616690454486,0.14282998451201048,0.2818416561943647,-0.8578096361352898,0.14089940809044918,0.9042628428555756,-0.38395848174515546,-0.23100157334705887,-0.12994939812029455,-0.20972610299856106,0.039169307692421516,-0.02167403112333273,0.08037181647284793,-0.03254009276294385,0.1952603292024727,0.7891753280807665,0.30425714514205143,0.11092766017553331,0.09744504443809725,0.4828785519794733,0.5889670623374063,0.2827088189895582,-0.08829882656757773,-0.21487337091797137,0.15204351355823262,-0.29810314288350637,0.2770587758627285,-0.06837398472970871,-0.2540690754385089,0.3101430465197147,0.05004322208754392,0.07999010497742591,0.20693676310516407,0.23356009841075795,0.06609312188349495
2001-02-14,0.04382349671560008,-0.038169494333329376,0.15685395427304988,0.651286222060886,-0.030978271412299682,-0.027496668349060022,0.5787477162463043,-0.7853769904133591,0.41416959655935165,1.3839395818030393,0.07557392595886897,0.1071832919803168,0.15049027081169883,0.3018036604812413,0.24579996827789347,0.5507520696241156,0.354794648313081,0.03450850237472481,0.5977061569206735,-0.35363177589358324,0.4998239918031815,0.36421732562871695,0.4885496010110144,0.017758176070047243,0.6985488596204028,0.00890933371576318,0.5022645947511478,0.18123970772403714,0.10603506206002829,0.3524109722744438,0.502042764905666,0.32052409915749097,-0.018897604824591793,-0.012261872894956042,0.10011217231598074,-0.10048229363574743,-0.14005831277010314,0.5228533886979393,0.03993659152298422,0.05170246053360591,0.06434811793003317,-0.26633549119829636,-0.24911898147885514,0.3901190518232523,0.06106601774941001,0.16334018026354688,0.26389060502855616,-0.20113017430507252,0.01234103688336988,-0.31812895878990544,0.24039417428879656,0.19049220678138853,-0.18878261479665118,-0.360179044557693,0.23617422032625238,0.22771374550545512,0.6252077982399697,0.2717461804325641,-0.012844375111842382,-0.08928944762510348,-0.08307764367891639,0.2817004111000583,0.5426682466474858,-0.3659375768907515,0.13297683013399325,-0.015510724074641394,0.29570507060604106,0.00937085117670961,0.16186038550292364,0.16203767952224427,1.6874628276388939,0.4421535056912163,-1.0886436408300095,-0.031934887546677414,0.36676253781492474,0.1954940577832056,0.037003115753688864,-0.010777378958257216,0.16801841207514578,0.22614112577791198,0.2700230425212581,0.15185631895627702,0.24298072022520606,-0.47567264135338094,0.2649950841277319,0.9708756714679577,-0.04000912277095743,0.15108846761195352,-0.3075375205660358,-0.10964247402928509,-0.23439785037650546,0.054627767756208354,0.029299728802259305,0.12758663955537958,0.193620734045827,0.19196696552979878,0.2083575676744617,0.7485704193601541,-0.00033012208194088016,0.032213133047434506
2001-02-15,0.1791645469172217,0.06004872696545412,0.2589121614201557,-0.11429714547195755,0.4271832503455174,0.10236700754455509,0.11849285299062684,0.15298634496520971,-0.01819429333454141,0.5996040683942885,-0.0006746931416767316,0.5455029420069557,0.14946806596439086,0.25388917967447566,0.44069418707710994,0.29572876014351374,0.5287651256450906,-0.08905846802409108,0.31404984092514393,-0.9453194690262023,0.4830658445352408,-0.19663433141690612,0.5084197750089892,-0.23831354045019243,0.42803699362533737,0.7960228108820713,0.4300850127401473,0.16811646468496252,0.3247712007001916,0.48425454679375335,0.7181449428881819,0.24135680712118013,0.010191360583451745,-0.057512365171421186,0.10661519707800259,0.20457260419517379,0.09890548159321169,0.09634431657462,0.3378324438819249,0.206439178863028,0.3577483903640677,-0.18997247148630267,0.033010344886989215,-0.3349729227206787,0.5002056819091308,0.16573405551126613,-0.08948735772797474,0.5357105819448615,0.04605588244413068,0.012311076023053888,0.45018657838719867,0.4699648909628112,0.1906287016419689,-0.3647459988674128,0.3890638479052643,-0.32648588418214836,0.11449135160477542,0.3304967084244195,0.47883639646388265,-0.0006208598043778224,0.040098002366963655,0.2574216371376542,0.32503036062735907,-0.1753904906116227,0.5942418756523957,-0.1702777770822511,0.08993978760744381,0.8959371172991718,0.1679265496291396,0.17523362766450937,-0.12063183393402455,-0.5872794887509636,-0.2413562557726258,0.5405964696237283,0.2959676165935193,-0.0006189391844687675,0.04520884858970141,0.11205338456909797,-0.14999383597166813,0.5391147611517553,-0.3299586550463037,0.35795623868880777,0.7243030286326859,-0.06847104710120383,-0.07310123983499725,-0.7861407319039084,-0.16309452046165412,0.9535202046755298,-0.12603802064182884,-0.3974429189715,0.17267656238379075,0.6876578164498823,-0.3112223335467007,0.36539908404584004,0.6680554805149758,-0.07209290946088119,0.38205219192057027,0.6417046214693887,0.09434260232302659,0.8908952666061113
